{"learner":{"attributes":{},"feature_names":[],"feature_types":[],"gradient_booster":{"model":{"gbtree_model_param":{"num_parallel_tree":"1","num_trees":"45"},"iteration_indptr":[0,1,2,3,4,5,6,7,8,9,10,11,12,13,14,15,16,17,18,19,20,21,22,23,24,25,26,27,28,29,30,31,32,33,34,35,36,37,38,39,40,41,42,43,44,45],"tree_info":[0,0,0,0,0,0,0,0,0,0,0,0,0,0,0,0,0,0,0,0,0,0,0,0,0,0,0,0,0,0,0,0,0,0,0,0,0,0,0,0,0,0,0,0,0],"trees":[{"base_weights":[7.744091E0,4.6926484E0,9.687148E0,2.4089959E0,5.918798E0,8.867934E0,1.3056278E1,1.6084155E0,3.4446905E0,5.3349824E0,7.4596934E0,8.148238E0,9.748502E0,1.5254176E1,1.1713191E1,1.1660014E0,2.2009413E0,2.8722339E0,3.936122E0,4.5352483E0,5.562025E0,9.054299E0,7.1485786E0,7.965283E0,1.2498667E0,8.659763E0,1.0284637E1,6.829996E-1,1.5907002E1,1.191869E1,9.4979995E-1,9.135731E-1,1.7563351E0,1.9341677E0,3.4135268E0,2.1979642E0,3.0889819E0,2.989096E0,4.3194423E0,3.6747136E0,4.8157644E0,4.662361E0,5.713374E0,8.497629E-1,9.4979995E-1,5.104075E0,7.4853063E0,7.3896375E0,8.511427E0,9.449851E0,8.185389E0,1.1768032E1,9.931998E0,6.829996E-1,1.6669556E1,1.0499139E0,1.2334962E1,6.2141216E-1,1.110239E0,1.4836468E0,2.149314E0,1.492044E0,2.2294915E0,2.2064576E0,3.9208846E0,2.7271879E0,1.8941078E0,3.2421548E0,2.3453054E0,2.7730875E0,3.538683E0,3.1671124E0,4.5739923E0,2.9636693E0,3.8889122E0,5.263395E0,4.3002586E0,3.8118865E0,5.860964E0,6.1529613E0,5.3558917E0,3.6770868E-1,5.52529E0,8.499209E-1,7.044367E0,7.8780484E0,6.932487E0,9.201471E0,7.917659E0,8.30883E0,9.8477545E0,7.0570817E0,8.860113E0,1.2832049E0,1.1044558E1,1.0472226E1,8.467307E0,1.6499099E0,1.6832457E0,1.3003643E1,1.1787671E1,4.5214247E-2,8.730634E-2,8.983975E-2,1.415147E-1,1.9486918E-1,1.3635984E-1,2.4079739E-1,1.5932906E-1,1.09584965E-1,1.7372444E-1,2.1226731E-1,2.518782E-1,1.5714897E-1,2.6791963E-1,4.493373E-1,3.6217526E-1,7.127072E-2,2.825813E-1,2.0813982E-1,1.6126415E-1,2.7806395E-1,3.484669E-1,1.7608534E-1,2.5304818E-1,2.5192055E-1,3.4949002E-1,3.8246223E-1,3.344412E-1,3.4128782E-1,2.3608144E-1,4.6996236E-1,2.0700291E-1,3.4898037E-1,2.6509476E-1,3.9658242E-1,2.1427166E-1,4.0897417E-1,5.772514E-1,4.4889432E-1,3.6939943E-1,4.493341E-1,3.480855E-1,4.3461633E-1,6.532292E-1,5.9115887E-1,7.2517025E-1,4.2116567E-1,5.480199E-1,5.829026E-1,5.3412455E-1,6.0904646E-1,7.427451E-1,7.077131E-1,8.88459E-1,5.7307655E-1,7.4124813E-1,9.3374103E-1,6.496385E-1,7.328187E-1,8.4257096E-1,9.1645545E-1,4.1591153E-1,9.6714383E-1,1.016486E0,5.829026E-1,7.255051E-1,8.558208E-1,9.8314345E-1,1.0498279E0,1.1498495E0,1.0650254E0,9.2963856E-1,6.324543E-1,1.0671033E0,1.2832049E0,1.316543E0,1.2165974E0,1.083169E0],"categories":[],"categories_nodes":[],"categories_segments":[],"categories_sizes":[],"default_left":[0,0,0,0,0,0,0,0,0,0,0,0,0,0,0,0,0,0,0,0,0,0,0,0,0,0,0,0,0,0,0,0,0,0,0,0,0,0,0,0,0,0,0,0,0,0,0,0,0,0,0,0,0,0,0,0,0,0,0,0,0,0,0,0,0,0,0,0,0,0,0,0,0,0,0,0,0,0,0,0,0,0,0,0,0,0,0,0,0,0,0,0,0,0,0,0,0,0,0,0,0,0,0,0,0,0,0,0,0,0,0,0,0,0,0,0,0,0,0,0,0,0,0,0,0,0,0,0,0,0,0,0,0,0,0,0,0,0,0,0,0,0,0,0,0,0,0,0,0,0,0,0,0,0,0,0,0,0,0,0,0,0,0,0,0,0,0,0,0,0,0,0,0,0,0,0,0,0,0],"id":0,"left_children":[1,3,5,7,9,11,13,15,17,19,21,23,25,27,29,31,33,35,37,39,41,43,45,47,-1,49,51,-1,53,55,-1,57,59,61,63,65,67,69,71,73,75,77,79,-1,-1,81,83,85,87,89,91,93,95,-1,97,-1,99,101,103,105,107,109,111,113,115,117,119,121,123,125,127,129,131,133,135,137,139,141,143,145,147,-1,149,-1,151,153,155,157,159,161,163,165,167,-1,169,171,173,-1,-1,175,177,-1,-1,-1,-1,-1,-1,-1,-1,-1,-1,-1,-1,-1,-1,-1,-1,-1,-1,-1,-1,-1,-1,-1,-1,-1,-1,-1,-1,-1,-1,-1,-1,-1,-1,-1,-1,-1,-1,-1,-1,-1,-1,-1,-1,-1,-1,-1,-1,-1,-1,-1,-1,-1,-1,-1,-1,-1,-1,-1,-1,-1,-1,-1,-1,-1,-1,-1,-1,-1,-1,-1,-1,-1,-1,-1,-1,-1,-1],"loss_changes":[9.169768E6,1.684694E6,2.607632E6,1.7423675E5,3.52013E5,4.81444E5,5.45116E5,3.1045125E4,2.5700875E4,5.1427E4,5.3136E4,3.32604E5,1.99254E5,3.85142E5,5.1895E4,1.0089055E4,1.6332266E4,6.128625E3,1.7809562E4,1.505625E4,2.99795E4,4.07425E3,6.18045E4,1.2597E5,0E0,4.2024E4,1.19472E5,0E0,4.49907E5,6.1673E4,0E0,2.7153906E3,2.1383047E3,5.3839688E3,5.5214297E3,1.6073594E3,3.5849688E3,1.6146094E3,1.01988125E4,2.2732031E3,1.0807375E4,3.2356375E4,2.95945E4,0E0,0E0,7.542875E3,3.43335E4,4.3433E4,8.4142E4,1.894325E4,5.3448E4,3.34735E4,1.46148E5,0E0,1.055E3,0E0,2.93E4,8.025947E2,1.8107227E3,6.350488E2,1.1510156E3,1.5876523E3,7.174375E2,7.667549E2,1.0021719E3,7.072461E2,3.0593945E2,2.8986875E3,5.462539E2,1.8042969E3,1.3738281E2,1.1941094E3,8.9590625E3,5.2034375E2,1.52325E3,1.5011375E4,2.4205938E3,4.1101562E3,1.3302531E4,2.233275E4,1.47305E4,0E0,4.0646875E2,0E0,1.950475E4,7.5934E4,5.80655E4,3.4804E4,3.2938E4,3.871575E4,1.45625E3,6.24325E3,1.26665E4,0E0,6.15375E3,2.7999E4,2.35266E5,0E0,0E0,5.845E2,1.57855E4,0E0,0E0,0E0,0E0,0E0,0E0,0E0,0E0,0E0,0E0,0E0,0E0,0E0,0E0,0E0,0E0,0E0,0E0,0E0,0E0,0E0,0E0,0E0,0E0,0E0,0E0,0E0,0E0,0E0,0E0,0E0,0E0,0E0,0E0,0E0,0E0,0E0,0E0,0E0,0E0,0E0,0E0,0E0,0E0,0E0,0E0,0E0,0E0,0E0,0E0,0E0,0E0,0E0,0E0,0E0,0E0,0E0,0E0,0E0,0E0,0E0,0E0,0E0,0E0,0E0,0E0,0E0,0E0,0E0,0E0,0E0,0E0,0E0,0E0,0E0,0E0,0E0,0E0],"parents":[2147483647,0,0,1,1,2,2,3,3,4,4,5,5,6,6,7,7,8,8,9,9,10,10,11,11,12,12,13,13,14,14,15,15,16,16,17,17,18,18,19,19,20,20,21,21,22,22,23,23,25,25,26,26,28,28,29,29,31,31,32,32,33,33,34,34,35,35,36,36,37,37,38,38,39,39,40,40,41,41,42,42,45,45,46,46,47,47,48,48,49,49,50,50,51,51,52,52,54,54,56,56,57,57,58,58,59,59,60,60,61,61,62,62,63,63,64,64,65,65,66,66,67,67,68,68,69,69,70,70,71,71,72,72,73,73,74,74,75,75,76,76,77,77,78,78,79,79,80,80,82,82,84,84,85,85,86,86,87,87,88,88,89,89,90,90,91,91,92,92,94,94,95,95,96,96,99,99,100,100],"right_children":[2,4,6,8,10,12,14,16,18,20,22,24,26,28,30,32,34,36,38,40,42,44,46,48,-1,50,52,-1,54,56,-1,58,60,62,64,66,68,70,72,74,76,78,80,-1,-1,82,84,86,88,90,92,94,96,-1,98,-1,100,102,104,106,108,110,112,114,116,118,120,122,124,126,128,130,132,134,136,138,140,142,144,146,148,-1,150,-1,152,154,156,158,160,162,164,166,168,-1,170,172,174,-1,-1,176,178,-1,-1,-1,-1,-1,-1,-1,-1,-1,-1,-1,-1,-1,-1,-1,-1,-1,-1,-1,-1,-1,-1,-1,-1,-1,-1,-1,-1,-1,-1,-1,-1,-1,-1,-1,-1,-1,-1,-1,-1,-1,-1,-1,-1,-1,-1,-1,-1,-1,-1,-1,-1,-1,-1,-1,-1,-1,-1,-1,-1,-1,-1,-1,-1,-1,-1,-1,-1,-1,-1,-1,-1,-1,-1,-1,-1,-1,-1],"split_conditions":[5.94E2,2.44E2,9.983E3,3.3E1,5.498E3,1.1432077E0,-8.8491315E-1,7.0745707E-1,4.3140656E-1,5.557885E-1,-1.2997215E0,4.76E2,3.36E2,3.55E2,1.3114E4,7.2E1,1.8057444E1,4.5E1,1.3130803E1,4.1744742E-1,1.45E2,6.032E3,4.62E2,3.55E2,1.2498667E0,6.3613995E1,7.24E3,6.829996E-1,1.6502267E0,1.0369306E-1,9.4979995E-1,2E1,3.36587E-1,3.3E1,2.72E2,9.3E1,3.995198E1,5.5E1,1.428E3,-3.0587208E-1,5.210364E-1,1.6381392E0,1.03756584E2,8.497629E-1,9.4979995E-1,1.24E2,3.371819E1,6.6E2,-6.6941863E-1,6.35E2,9.7690285E1,6.97E2,6.84883E-1,6.829996E-1,-1.3996246E0,1.0499139E0,4.08E2,2.7867338E-1,2.339831E-1,-1.8391839E0,1.15E2,2E1,1.4518584E1,4.3E1,4.67E2,6.37E2,1.4E2,1.57E3,-4.3462536E-1,1.3433069E0,-1.9487703E0,1.063E3,5.3908348E1,1.57E3,1.365634E0,3.35E2,1.369771E2,2.85E2,3.493E3,2.52E2,1.69E2,3.6770868E-1,3.95E2,8.499209E-1,2.66E2,2.92E2,-2.0021911E-1,8.36E2,7.85E2,1.81E2,7.24E3,6.887E3,7.85E2,1.2832049E0,6.192E3,1.2650554E2,1.1856248E0,1.6499099E0,1.6832457E0,7.21E2,6.342365E-1,4.5214247E-2,8.730634E-2,8.983975E-2,1.415147E-1,1.9486918E-1,1.3635984E-1,2.4079739E-1,1.5932906E-1,1.09584965E-1,1.7372444E-1,2.1226731E-1,2.518782E-1,1.5714897E-1,2.6791963E-1,4.493373E-1,3.6217526E-1,7.127072E-2,2.825813E-1,2.0813982E-1,1.6126415E-1,2.7806395E-1,3.484669E-1,1.7608534E-1,2.5304818E-1,2.5192055E-1,3.4949002E-1,3.8246223E-1,3.344412E-1,3.4128782E-1,2.3608144E-1,4.6996236E-1,2.0700291E-1,3.4898037E-1,2.6509476E-1,3.9658242E-1,2.1427166E-1,4.0897417E-1,5.772514E-1,4.4889432E-1,3.6939943E-1,4.493341E-1,3.480855E-1,4.3461633E-1,6.532292E-1,5.9115887E-1,7.2517025E-1,4.2116567E-1,5.480199E-1,5.829026E-1,5.3412455E-1,6.0904646E-1,7.427451E-1,7.077131E-1,8.88459E-1,5.7307655E-1,7.4124813E-1,9.3374103E-1,6.496385E-1,7.328187E-1,8.4257096E-1,9.1645545E-1,4.1591153E-1,9.6714383E-1,1.016486E0,5.829026E-1,7.255051E-1,8.558208E-1,9.8314345E-1,1.0498279E0,1.1498495E0,1.0650254E0,9.2963856E-1,6.324543E-1,1.0671033E0,1.2832049E0,1.316543E0,1.2165974E0,1.083169E0],"split_indices":[1,1,0,2,0,5,3,5,5,5,3,2,2,2,0,1,4,2,4,5,2,0,1,2,0,4,0,0,5,3,0,1,5,1,0,1,4,2,0,3,5,3,4,0,0,2,4,1,3,1,4,1,3,0,3,0,2,5,5,3,1,1,4,1,0,0,1,0,3,5,3,0,4,0,3,1,4,1,0,2,2,0,1,0,2,2,3,1,1,2,0,0,1,0,0,4,3,0,0,1,3,0,0,0,0,0,0,0,0,0,0,0,0,0,0,0,0,0,0,0,0,0,0,0,0,0,0,0,0,0,0,0,0,0,0,0,0,0,0,0,0,0,0,0,0,0,0,0,0,0,0,0,0,0,0,0,0,0,0,0,0,0,0,0,0,0,0,0,0,0,0,0,0,0,0,0,0,0,0],"split_type":[0,0,0,0,0,0,0,0,0,0,0,0,0,0,0,0,0,0,0,0,0,0,0,0,0,0,0,0,0,0,0,0,0,0,0,0,0,0,0,0,0,0,0,0,0,0,0,0,0,0,0,0,0,0,0,0,0,0,0,0,0,0,0,0,0,0,0,0,0,0,0,0,0,0,0,0,0,0,0,0,0,0,0,0,0,0,0,0,0,0,0,0,0,0,0,0,0,0,0,0,0,0,0,0,0,0,0,0,0,0,0,0,0,0,0,0,0,0,0,0,0,0,0,0,0,0,0,0,0,0,0,0,0,0,0,0,0,0,0,0,0,0,0,0,0,0,0,0,0,0,0,0,0,0,0,0,0,0,0,0,0,0,0,0,0,0,0,0,0,0,0,0,0,0,0,0,0,0,0],"sum_hessian":[1.546593E6,6.01689E5,9.44904E5,2.10204E5,3.91485E5,7.60092E5,1.84812E5,1.18566E5,9.1638E4,2.83923E5,1.07562E5,4.18263E5,3.41829E5,7.0092E4,1.1472E5,6.7893E4,5.0673E4,4.2342E4,4.9296E4,6.2796E4,2.21127E5,1.755E4,9.0012E4,4.01388E5,1.6875E4,1.128E5,2.29029E5,5.043E3,6.5049E4,1.04973E5,9.747E3,4.7571E4,2.0322E4,4.1544E4,9.129E3,1.0314E4,3.2028E4,1.4214E4,3.5082E4,1.545E4,4.7346E4,3.1857E4,1.8927E5,7.803E3,9.747E3,1.2735E4,7.7277E4,1.95432E5,2.05956E5,4.2303E4,7.0497E4,4.3977E4,1.85052E5,5.043E3,6.0006E4,2.3814E4,8.1159E4,1.9161E4,2.841E4,1.2015E4,8.307E3,1.6653E4,2.4891E4,2.709E3,6.42E3,3.747E3,6.567E3,2.6544E4,5.484E3,1.0221E4,3.993E3,6.357E3,2.8725E4,3.591E3,1.1859E4,2.5326E4,2.202E4,1.8642E4,1.3215E4,8.4867E4,1.04403E5,2.91E3,9.825E3,2.3409E4,5.3868E4,9.4467E4,1.00965E5,9.5241E4,1.10715E5,1.095E4,3.1353E4,2.6391E4,4.4106E4,1.7787E4,2.619E4,1.3518E5,4.9872E4,2.9403E4,3.0603E4,3.651E4,4.4649E4,1.1481E4,7.68E3,1.6785E4,1.1625E4,2.445E3,9.57E3,5.655E3,2.652E3,6.384E3,1.0269E4,1.821E4,6.681E3,1.167E3,1.542E3,2.187E3,4.233E3,1.8E2,3.567E3,3.918E3,2.649E3,9.162E3,1.7382E4,1.335E3,4.149E3,7.575E3,2.646E3,1.587E3,2.406E3,4.86E3,1.497E3,2.7348E4,1.377E3,1.323E3,2.268E3,1.1352E4,5.07E2,7.671E3,1.7655E4,1.6776E4,5.244E3,6.081E3,1.2561E4,4.065E3,9.15E3,6.9594E4,1.5273E4,1.0242E4,9.4161E4,3.675E3,6.15E3,1.5447E4,3.8421E4,5.2617E4,4.185E4,2.8827E4,7.2138E4,9.0678E4,4.563E3,5.1267E4,5.9448E4,9.075E3,1.875E3,2.019E4,1.1163E4,3.675E3,2.2716E4,3.3663E4,1.0443E4,1.1907E4,1.4283E4,1.1739E5,1.779E4,2.529E4,2.4582E4,1.7787E4,1.8723E4,3.1974E4,1.2675E4],"tree_param":{"num_deleted":"0","num_feature":"6","num_nodes":"179","size_leaf_vector":"1"}},{"base_weights":[7.502951E0,4.5553174E0,9.374248E0,2.3456836E0,5.736373E0,8.583763E0,1.2621084E1,1.5714467E0,3.3398929E0,5.1729355E0,7.221141E0,7.891373E0,9.429951E0,1.474568E1,1.1322771E1,1.1449534E0,2.1362772E0,2.7904286E0,3.8099265E0,4.3906646E0,5.39544E0,8.752466E0,6.9218745E0,7.714807E0,1.208198E0,8.37795E0,9.947891E0,6.602144E-1,1.5376751E1,1.1521417E1,9.181294E-1,8.4725714E-1,1.6059616E0,1.8788136E0,3.3014846E0,2.1316473E0,3.0026476E0,2.8948088E0,4.1800528E0,3.5596538E0,4.661343E0,4.5195756E0,5.5428934E0,8.214249E-1,9.181294E-1,4.9342628E0,7.2498145E0,7.166788E0,8.2334585E0,9.13494E0,7.92286E0,1.137577E1,9.608193E0,6.602144E-1,1.6113895E1,1.0149124E0,1.1923809E1,6.467232E-1,1.0894053E0,1.3517398E0,2.01473E0,1.4508334E0,2.1641774E0,2.1361787E0,3.7904842E0,2.643651E0,1.8373008E0,3.1527843E0,2.2752142E0,2.6873684E0,3.4210029E0,3.0661526E0,4.4259634E0,2.8713427E0,3.7668698E0,5.094578E0,4.162357E0,3.6944573E0,5.682849E0,5.8630357E0,5.0842166E0,3.554753E-1,5.34131E0,8.2158613E-1,6.828538E0,6.5716314E0,7.526848E0,8.902009E0,7.658291E0,8.03175E0,9.519614E0,6.8219924E0,8.582424E0,1.2404251E0,1.067639E1,1.0132452E1,8.187592E0,1.5949086E0,1.6271333E0,1.2570178E1,1.1394737E1,4.1096646E-2,8.0723725E-2,8.046238E-2,1.3148923E-1,1.1968362E-1,1.5906876E-1,2.1801928E-1,1.5466796E-1,1.06721595E-1,1.6875625E-1,2.0615284E-1,2.4414614E-1,1.5237156E-1,2.5900877E-1,4.343203E-1,3.5013172E-1,6.887926E-2,2.73936E-1,2.019409E-1,1.5633962E-1,2.699156E-1,3.391704E-1,1.7104381E-1,2.4535517E-1,2.4434367E-1,3.378093E-1,3.5563704E-1,3.0422488E-1,3.3017766E-1,2.2902326E-1,4.5476872E-1,2.0012403E-1,3.3728585E-1,2.5715742E-1,3.8417268E-1,2.0697859E-1,3.9662647E-1,5.582652E-1,4.3428525E-1,3.581011E-1,4.351062E-1,3.3749935E-1,4.241774E-1,6.3156223E-1,5.677765E-1,7.0269865E-1,4.3108627E-1,5.4576206E-1,5.63448E-1,5.1634187E-1,8.249937E-1,6.584131E-1,6.9164497E-1,4.9609643E-1,7.7153486E-1,4.9965525E-1,9.033888E-1,6.279636E-1,7.0869637E-1,8.150819E-1,8.858957E-1,4.0200287E-1,9.1755104E-1,9.6736115E-1,5.63448E-1,7.0133764E-1,8.295299E-1,9.5036215E-1,1.0148246E0,1.1115135E0,1.0304358E0,8.9966863E-1,6.117367E-1,1.0315468E0,1.2404251E0,1.2726521E0,1.1760405E0,1.0470549E0],"categories":[],"categories_nodes":[],"categories_segments":[],"categories_sizes":[],"default_left":[0,0,0,0,0,0,0,0,0,0,0,0,0,0,0,0,0,0,0,0,0,0,0,0,0,0,0,0,0,0,0,0,0,0,0,0,0,0,0,0,0,0,0,0,0,0,0,0,0,0,0,0,0,0,0,0,0,0,0,0,0,0,0,0,0,0,0,0,0,0,0,0,0,0,0,0,0,0,0,0,0,0,0,0,0,0,0,0,0,0,0,0,0,0,0,0,0,0,0,0,0,0,0,0,0,0,0,0,0,0,0,0,0,0,0,0,0,0,0,0,0,0,0,0,0,0,0,0,0,0,0,0,0,0,0,0,0,0,0,0,0,0,0,0,0,0,0,0,0,0,0,0,0,0,0,0,0,0,0,0,0,0,0,0,0,0,0,0,0,0,0,0,0,0,0,0,0,0,0],"id":1,"left_children":[1,3,5,7,9,11,13,15,17,19,21,23,25,27,29,31,33,35,37,39,41,43,45,47,-1,49,51,-1,53,55,-1,57,59,61,63,65,67,69,71,73,75,77,79,-1,-1,81,83,85,87,89,91,93,95,-1,97,-1,99,101,103,105,107,109,111,113,115,117,119,121,123,125,127,129,131,133,135,137,139,141,143,145,147,-1,149,-1,151,153,155,157,159,161,163,165,167,-1,169,171,173,-1,-1,175,177,-1,-1,-1,-1,-1,-1,-1,-1,-1,-1,-1,-1,-1,-1,-1,-1,-1,-1,-1,-1,-1,-1,-1,-1,-1,-1,-1,-1,-1,-1,-1,-1,-1,-1,-1,-1,-1,-1,-1,-1,-1,-1,-1,-1,-1,-1,-1,-1,-1,-1,-1,-1,-1,-1,-1,-1,-1,-1,-1,-1,-1,-1,-1,-1,-1,-1,-1,-1,-1,-1,-1,-1,-1,-1,-1,-1,-1,-1],"loss_changes":[7.954E6,1.461292E6,2.263568E6,1.5009338E5,3.05125E5,4.15368E5,4.75942E5,2.6383531E4,2.197725E4,4.59245E4,4.57835E4,2.8839E5,1.73668E5,3.36285E5,4.5289E4,8.551453E3,1.409325E4,5.4482188E3,1.5501125E4,1.308225E4,2.6473E4,3.536E3,5.458125E4,1.062E5,0E0,3.6042E4,1.03428E5,0E0,3.92841E5,5.3825E4,0E0,1.8267441E3,2.5104883E3,4.6802812E3,4.7923438E3,1.398707E3,3.1902188E3,1.3772188E3,8.8823125E3,1.9781719E3,9.43875E3,2.8383812E4,2.5743E4,0E0,0E0,6.57475E3,2.91275E4,3.8822E4,7.372E4,1.6524E4,4.75615E4,2.9197E4,1.28427E5,0E0,8.73E2,0E0,2.5553E4,7.748428E2,1.0813262E3,5.302012E2,6.8583984E2,1.3760801E3,6.093828E2,6.5804785E2,8.653281E2,6.1746094E2,2.661836E2,2.6032188E3,4.6871094E2,1.5391797E3,1.1455859E2,1.0212461E3,7.8405625E3,4.3549023E2,1.3382031E3,1.2899625E4,2.0617812E3,3.5532812E3,1.1096375E4,2.221425E4,2.080725E4,0E0,3.4178125E2,0E0,1.723875E4,3.79695E4,5.39285E4,3.05455E4,2.88865E4,3.379575E4,1.275E3,5.438875E3,1.06235E4,0E0,5.34575E3,2.4356E4,2.0501E5,0E0,0E0,4.765E2,1.37545E4,0E0,0E0,0E0,0E0,0E0,0E0,0E0,0E0,0E0,0E0,0E0,0E0,0E0,0E0,0E0,0E0,0E0,0E0,0E0,0E0,0E0,0E0,0E0,0E0,0E0,0E0,0E0,0E0,0E0,0E0,0E0,0E0,0E0,0E0,0E0,0E0,0E0,0E0,0E0,0E0,0E0,0E0,0E0,0E0,0E0,0E0,0E0,0E0,0E0,0E0,0E0,0E0,0E0,0E0,0E0,0E0,0E0,0E0,0E0,0E0,0E0,0E0,0E0,0E0,0E0,0E0,0E0,0E0,0E0,0E0,0E0,0E0,0E0,0E0,0E0,0E0,0E0,0E0],"parents":[2147483647,0,0,1,1,2,2,3,3,4,4,5,5,6,6,7,7,8,8,9,9,10,10,11,11,12,12,13,13,14,14,15,15,16,16,17,17,18,18,19,19,20,20,21,21,22,22,23,23,25,25,26,26,28,28,29,29,31,31,32,32,33,33,34,34,35,35,36,36,37,37,38,38,39,39,40,40,41,41,42,42,45,45,46,46,47,47,48,48,49,49,50,50,51,51,52,52,54,54,56,56,57,57,58,58,59,59,60,60,61,61,62,62,63,63,64,64,65,65,66,66,67,67,68,68,69,69,70,70,71,71,72,72,73,73,74,74,75,75,76,76,77,77,78,78,79,79,80,80,82,82,84,84,85,85,86,86,87,87,88,88,89,89,90,90,91,91,92,92,94,94,95,95,96,96,99,99,100,100],"right_children":[2,4,6,8,10,12,14,16,18,20,22,24,26,28,30,32,34,36,38,40,42,44,46,48,-1,50,52,-1,54,56,-1,58,60,62,64,66,68,70,72,74,76,78,80,-1,-1,82,84,86,88,90,92,94,96,-1,98,-1,100,102,104,106,108,110,112,114,116,118,120,122,124,126,128,130,132,134,136,138,140,142,144,146,148,-1,150,-1,152,154,156,158,160,162,164,166,168,-1,170,172,174,-1,-1,176,178,-1,-1,-1,-1,-1,-1,-1,-1,-1,-1,-1,-1,-1,-1,-1,-1,-1,-1,-1,-1,-1,-1,-1,-1,-1,-1,-1,-1,-1,-1,-1,-1,-1,-1,-1,-1,-1,-1,-1,-1,-1,-1,-1,-1,-1,-1,-1,-1,-1,-1,-1,-1,-1,-1,-1,-1,-1,-1,-1,-1,-1,-1,-1,-1,-1,-1,-1,-1,-1,-1,-1,-1,-1,-1,-1,-1,-1,-1],"split_conditions":[5.94E2,2.44E2,9.983E3,3.3E1,5.498E3,1.1432077E0,-8.8491315E-1,7.0745707E-1,4.3140656E-1,5.557885E-1,-1.2997215E0,4.76E2,3.36E2,3.55E2,1.3114E4,5.4E1,1.8057444E1,4.5E1,1.3130803E1,4.1744742E-1,1.45E2,6.032E3,4.62E2,3.55E2,1.208198E0,6.3613995E1,7.24E3,6.602144E-1,1.6502267E0,1.0369306E-1,9.181294E-1,2.339831E-1,3.36587E-1,3.3E1,2.72E2,9.3E1,3.995198E1,5.5E1,1.428E3,-3.0587208E-1,5.210364E-1,1.6381392E0,1.20069275E2,8.214249E-1,9.181294E-1,1.24E2,3.371819E1,1.0693623E2,-6.6941863E-1,6.35E2,9.7690285E1,6.97E2,6.84883E-1,6.602144E-1,-1.3996246E0,1.0149124E0,4.08E2,2.53E2,1.8E1,2.356196E-1,1.15E2,2E1,1.4518584E1,4.3E1,4.67E2,6.37E2,1.4E2,1.57E3,-4.3462536E-1,1.3433069E0,2.276E3,1.063E3,5.3908348E1,1.57E3,1.365634E0,3.35E2,1.369771E2,2.85E2,3.493E3,2.66E2,4.44E2,3.554753E-1,3.95E2,8.2158613E-1,5.784E3,9.0512085E1,1.546632E2,8.36E2,7.85E2,1.81E2,6.887E3,6.887E3,7.85E2,1.2404251E0,6.192E3,1.2650554E2,1.1856248E0,1.5949086E0,1.6271333E0,7.21E2,6.342365E-1,4.1096646E-2,8.0723725E-2,8.046238E-2,1.3148923E-1,1.1968362E-1,1.5906876E-1,2.1801928E-1,1.5466796E-1,1.06721595E-1,1.6875625E-1,2.0615284E-1,2.4414614E-1,1.5237156E-1,2.5900877E-1,4.343203E-1,3.5013172E-1,6.887926E-2,2.73936E-1,2.019409E-1,1.5633962E-1,2.699156E-1,3.391704E-1,1.7104381E-1,2.4535517E-1,2.4434367E-1,3.378093E-1,3.5563704E-1,3.0422488E-1,3.3017766E-1,2.2902326E-1,4.5476872E-1,2.0012403E-1,3.3728585E-1,2.5715742E-1,3.8417268E-1,2.0697859E-1,3.9662647E-1,5.582652E-1,4.3428525E-1,3.581011E-1,4.351062E-1,3.3749935E-1,4.241774E-1,6.3156223E-1,5.677765E-1,7.0269865E-1,4.3108627E-1,5.4576206E-1,5.63448E-1,5.1634187E-1,8.249937E-1,6.584131E-1,6.9164497E-1,4.9609643E-1,7.7153486E-1,4.9965525E-1,9.033888E-1,6.279636E-1,7.0869637E-1,8.150819E-1,8.858957E-1,4.0200287E-1,9.1755104E-1,9.6736115E-1,5.63448E-1,7.0133764E-1,8.295299E-1,9.5036215E-1,1.0148246E0,1.1115135E0,1.0304358E0,8.9966863E-1,6.117367E-1,1.0315468E0,1.2404251E0,1.2726521E0,1.1760405E0,1.0470549E0],"split_indices":[1,1,0,2,0,5,3,5,5,5,3,2,2,2,0,1,4,2,4,5,2,0,1,2,0,4,0,0,5,3,0,5,5,1,0,1,4,2,0,3,5,3,4,0,0,2,4,4,3,1,4,1,3,0,3,0,2,0,1,5,1,1,4,1,0,0,1,0,3,5,0,0,4,0,3,1,4,1,0,2,1,0,1,0,0,4,4,1,1,2,0,0,1,0,0,4,3,0,0,1,3,0,0,0,0,0,0,0,0,0,0,0,0,0,0,0,0,0,0,0,0,0,0,0,0,0,0,0,0,0,0,0,0,0,0,0,0,0,0,0,0,0,0,0,0,0,0,0,0,0,0,0,0,0,0,0,0,0,0,0,0,0,0,0,0,0,0,0,0,0,0,0,0,0,0,0,0,0,0],"split_type":[0,0,0,0,0,0,0,0,0,0,0,0,0,0,0,0,0,0,0,0,0,0,0,0,0,0,0,0,0,0,0,0,0,0,0,0,0,0,0,0,0,0,0,0,0,0,0,0,0,0,0,0,0,0,0,0,0,0,0,0,0,0,0,0,0,0,0,0,0,0,0,0,0,0,0,0,0,0,0,0,0,0,0,0,0,0,0,0,0,0,0,0,0,0,0,0,0,0,0,0,0,0,0,0,0,0,0,0,0,0,0,0,0,0,0,0,0,0,0,0,0,0,0,0,0,0,0,0,0,0,0,0,0,0,0,0,0,0,0,0,0,0,0,0,0,0,0,0,0,0,0,0,0,0,0,0,0,0,0,0,0,0,0,0,0,0,0,0,0,0,0,0,0,0,0,0,0,0,0],"sum_hessian":[1.4420461E6,5.599816E5,8.820645E5,1.950585E5,3.649231E5,7.093667E5,1.726978E5,1.09667766E5,8.5390734E4,2.645451E5,1.00378E5,3.9015006E5,3.1921662E5,6.5497605E4,1.07200195E5,6.249766E4,4.717011E4,3.938192E4,4.6008812E4,5.8597348E4,2.0594775E5,1.6399773E4,8.397823E4,3.743812E5,1.5768865E4,1.0532493E5,2.138917E5,4.7125625E3,6.0785043E4,9.809203E4,9.108162E3,3.7990082E4,2.4507578E4,3.8642812E4,8.527298E3,9.609565E3,2.9772357E4,1.3260004E4,3.2748809E4,1.4409584E4,4.418776E4,2.968999E4,1.7625775E5,7.2916104E3,9.108162E3,1.1899992E4,7.2078234E4,1.8205353E5,1.9232766E5,3.9530035E4,6.579489E4,4.109443E4,1.7279728E5,4.7125625E3,5.607248E4,2.2252986E4,7.583905E4,2.0805262E4,1.7184818E4,1.5127951E4,9.379628E3,1.5474996E4,2.3167814E4,2.5282346E3,5.9990635E3,3.4925203E3,6.1170454E3,2.4664678E4,5.107678E3,9.528655E3,3.7313481E3,5.932141E3,2.6816668E4,3.348835E3,1.1060749E4,2.363657E4,2.0551191E4,1.7377078E4,1.231291E4,1.0378526E5,7.247249E4,2.7190952E3,9.180897E3,2.187455E4,5.0203688E4,6.864106E4,1.1341246E5,8.892879E4,1.0339887E5,1.023252E4,2.9297516E4,2.4660668E4,4.1134223E4,1.662108E4,2.4473348E4,1.2620826E5,4.6589023E4,2.7475574E4,2.8596906E4,3.4116797E4,4.172225E4,8.454088E3,1.2351174E4,7.6155645E3,9.569254E3,9.207095E3,5.9208564E3,6.9113433E3,2.4682847E3,5.9235986E3,9.551397E3,1.6940889E4,6.226926E3,1.087393E3,1.4408417E3,2.0438376E3,3.9552256E3,1.6827034E2,3.32425E3,3.648454E3,2.4685916E3,8.527657E3,1.6137021E4,1.2417742E3,3.865904E3,7.0558667E3,2.4727886E3,2.7232588E3,1.0080896E3,4.537955E3,1.3941863E3,2.5530033E4,1.2866334E3,1.2365184E3,2.1123164E3,1.0586624E4,4.741246E2,7.146098E3,1.6490473E4,1.566413E4,4.887061E3,5.673084E3,1.1703995E4,3.7640918E3,8.548818E3,8.954627E4,1.4238984E4,2.3611094E4,4.88614E4,3.434258E3,5.7466396E3,7.3550605E3,4.2848625E4,5.6529492E4,1.2111574E4,1.0554373E5,7.8687295E3,8.466476E4,4.264033E3,4.7886613E4,5.5512254E4,8.480218E3,1.7523022E3,9.096698E3,2.0200818E4,3.434258E3,2.122641E4,3.137569E4,9.758533E3,1.1126557E4,1.3346791E4,1.0960233E5,1.660593E4,2.3618764E4,2.297026E4,1.662108E4,1.7495715E4,2.9878043E4,1.1844208E4],"tree_param":{"num_deleted":"0","num_feature":"6","num_nodes":"179","size_leaf_vector":"1"}},{"base_weights":[7.2696443E0,4.422108E0,9.072019E0,2.2840009E0,5.5598636E0,8.309346E0,1.22003975E1,1.5351576E0,3.2387278E0,5.015917E0,6.991163E0,7.643524E0,9.122063E0,1.4254133E1,1.0945366E1,1.1239299E0,2.0739756E0,2.71155E0,3.6880465E0,4.2508087E0,5.23395E0,8.460692E0,6.703449E0,7.473145E0,1.1679174E0,8.10541E0,9.622509E0,6.381875E-1,1.4864176E1,1.1137387E1,8.8751394E-1,8.87111E-1,1.6594968E0,1.8255314E0,3.1932294E0,2.0675254E0,2.9194882E0,2.8037393E0,4.0454335E0,3.4477837E0,4.5122137E0,4.3818855E0,5.3774776E0,7.940304E-1,8.8751394E-1,4.7701216E0,7.0230546E0,6.9521394E0,7.964938E0,8.830519E0,7.6689143E0,1.0996583E1,9.29535E0,6.381875E-1,1.557676E1,9.810772E-1,1.1526362E1,6.1245286E-1,1.0665798E0,1.4015675E0,2.0298128E0,1.3886223E0,2.0875623E0,2.068342E0,3.664439E0,2.562586E0,1.7824807E0,3.0667348E0,2.207589E0,2.6046216E0,3.3071916E0,2.9686353E0,4.283003E0,2.7815094E0,3.6482306E0,4.931495E0,4.029224E0,3.5812237E0,5.5110736E0,5.789219E0,5.0419345E0,3.4364963E-1,5.163468E0,7.941954E-1,6.6211333E0,7.424811E0,6.5065E0,8.612746E0,7.407723E0,7.763899E0,9.202401E0,6.594745E0,8.31372E0,1.1990708E0,1.0320494E1,9.804206E0,7.9172907E0,1.5417404E0,1.5728911E0,1.2151161E1,1.1014901E1,4.4836428E-2,8.453914E-2,8.761897E-2,1.3403812E-1,1.8438347E-1,1.2846123E-1,2.2738622E-1,1.5016805E-1,1.0299312E-1,1.5872477E-1,1.6976635E-1,2.161804E-1,1.4776736E-1,2.5039396E-1,4.1980144E-1,3.3849004E-1,6.6528074E-2,2.655506E-1,1.9596182E-1,1.515811E-1,2.620229E-1,3.3025143E-1,1.6618909E-1,2.379266E-1,2.3703451E-1,3.26516E-1,3.5775313E-1,3.1216416E-1,3.194464E-1,2.22204E-1,4.4009587E-1,1.9347309E-1,3.2597715E-1,2.4940196E-1,3.721062E-1,1.9991891E-1,3.847063E-1,5.399212E-1,4.2017242E-1,3.4721854E-1,4.2137867E-1,3.272941E-1,4.1423115E-1,6.106209E-1,5.564603E-1,6.810231E-1,3.9321026E-1,5.16116E-1,5.4464036E-1,4.9915224E-1,6.826698E-1,5.074165E-1,6.638037E-1,8.400772E-1,5.3347987E-1,6.966572E-1,8.740714E-1,6.0701E-1,6.8538886E-1,7.885289E-1,8.563542E-1,3.8855493E-1,9.034606E-1,9.5033854E-1,5.4464036E-1,6.7797637E-1,8.656002E-1,7.603474E-1,9.8098767E-1,1.0744548E0,9.970167E-1,8.707321E-1,5.9172314E-1,9.971759E-1,1.1990708E0,1.2302239E0,1.1368356E0,1.012144E0],"categories":[],"categories_nodes":[],"categories_segments":[],"categories_sizes":[],"default_left":[0,0,0,0,0,0,0,0,0,0,0,0,0,0,0,0,0,0,0,0,0,0,0,0,0,0,0,0,0,0,0,0,0,0,0,0,0,0,0,0,0,0,0,0,0,0,0,0,0,0,0,0,0,0,0,0,0,0,0,0,0,0,0,0,0,0,0,0,0,0,0,0,0,0,0,0,0,0,0,0,0,0,0,0,0,0,0,0,0,0,0,0,0,0,0,0,0,0,0,0,0,0,0,0,0,0,0,0,0,0,0,0,0,0,0,0,0,0,0,0,0,0,0,0,0,0,0,0,0,0,0,0,0,0,0,0,0,0,0,0,0,0,0,0,0,0,0,0,0,0,0,0,0,0,0,0,0,0,0,0,0,0,0,0,0,0,0,0,0,0,0,0,0,0,0,0,0,0,0],"id":2,"left_children":[1,3,5,7,9,11,13,15,17,19,21,23,25,27,29,31,33,35,37,39,41,43,45,47,-1,49,51,-1,53,55,-1,57,59,61,63,65,67,69,71,73,75,77,79,-1,-1,81,83,85,87,89,91,93,95,-1,97,-1,99,101,103,105,107,109,111,113,115,117,119,121,123,125,127,129,131,133,135,137,139,141,143,145,147,-1,149,-1,151,153,155,157,159,161,163,165,167,-1,169,171,173,-1,-1,175,177,-1,-1,-1,-1,-1,-1,-1,-1,-1,-1,-1,-1,-1,-1,-1,-1,-1,-1,-1,-1,-1,-1,-1,-1,-1,-1,-1,-1,-1,-1,-1,-1,-1,-1,-1,-1,-1,-1,-1,-1,-1,-1,-1,-1,-1,-1,-1,-1,-1,-1,-1,-1,-1,-1,-1,-1,-1,-1,-1,-1,-1,-1,-1,-1,-1,-1,-1,-1,-1,-1,-1,-1,-1,-1,-1,-1,-1,-1],"loss_changes":[6.900304E6,1.267698E6,1.964152E6,1.2935894E5,2.64668E5,3.5798E5,4.15544E5,2.2444844E4,1.8771688E4,4.1001E4,3.9393E4,2.49926E5,1.51408E5,2.93626E5,3.9523E4,7.272336E3,1.2151719E4,4.8484688E3,1.34905625E4,1.138275E4,2.3336E4,3.066875E3,4.825425E4,8.9256E4,0E0,3.08945E4,8.9488E4,0E0,3.43011E5,4.6974E4,0E0,1.9503242E3,1.6469023E3,4.0764531E3,4.157578E3,1.2154609E3,2.8409375E3,1.1723281E3,7.7349688E3,1.7207344E3,8.241625E3,2.4903125E4,2.25395E4,0E0,0E0,5.7299375E3,2.4627E4,3.55285E4,6.4604E4,1.44115E4,4.2328E4,2.54645E4,1.12888E5,0E0,7.16E2,0E0,2.2282E4,5.90625E2,1.234043E3,5.049043E2,8.894785E2,9.332715E2,6.075156E2,5.637881E2,7.4622656E2,5.391367E2,2.3143945E2,2.3443906E3,4.0133203E2,1.3105703E3,9.680078E1,8.721797E2,6.8625E3,3.6393164E2,1.1746406E3,1.10754375E4,1.7516562E3,3.0697969E3,9.2169375E3,1.673625E4,1.185875E4,0E0,2.85875E2,0E0,1.4721625E4,6.29625E4,4.6897E4,2.68155E4,2.53385E4,2.9500125E4,1.11125E3,4.7370625E3,9.0975E3,0E0,4.64125E3,2.1176E4,1.7861775E5,0E0,0E0,3.825E2,1.19825E4,0E0,0E0,0E0,0E0,0E0,0E0,0E0,0E0,0E0,0E0,0E0,0E0,0E0,0E0,0E0,0E0,0E0,0E0,0E0,0E0,0E0,0E0,0E0,0E0,0E0,0E0,0E0,0E0,0E0,0E0,0E0,0E0,0E0,0E0,0E0,0E0,0E0,0E0,0E0,0E0,0E0,0E0,0E0,0E0,0E0,0E0,0E0,0E0,0E0,0E0,0E0,0E0,0E0,0E0,0E0,0E0,0E0,0E0,0E0,0E0,0E0,0E0,0E0,0E0,0E0,0E0,0E0,0E0,0E0,0E0,0E0,0E0,0E0,0E0,0E0,0E0,0E0,0E0],"parents":[2147483647,0,0,1,1,2,2,3,3,4,4,5,5,6,6,7,7,8,8,9,9,10,10,11,11,12,12,13,13,14,14,15,15,16,16,17,17,18,18,19,19,20,20,21,21,22,22,23,23,25,25,26,26,28,28,29,29,31,31,32,32,33,33,34,34,35,35,36,36,37,37,38,38,39,39,40,40,41,41,42,42,45,45,46,46,47,47,48,48,49,49,50,50,51,51,52,52,54,54,56,56,57,57,58,58,59,59,60,60,61,61,62,62,63,63,64,64,65,65,66,66,67,67,68,68,69,69,70,70,71,71,72,72,73,73,74,74,75,75,76,76,77,77,78,78,79,79,80,80,82,82,84,84,85,85,86,86,87,87,88,88,89,89,90,90,91,91,92,92,94,94,95,95,96,96,99,99,100,100],"right_children":[2,4,6,8,10,12,14,16,18,20,22,24,26,28,30,32,34,36,38,40,42,44,46,48,-1,50,52,-1,54,56,-1,58,60,62,64,66,68,70,72,74,76,78,80,-1,-1,82,84,86,88,90,92,94,96,-1,98,-1,100,102,104,106,108,110,112,114,116,118,120,122,124,126,128,130,132,134,136,138,140,142,144,146,148,-1,150,-1,152,154,156,158,160,162,164,166,168,-1,170,172,174,-1,-1,176,178,-1,-1,-1,-1,-1,-1,-1,-1,-1,-1,-1,-1,-1,-1,-1,-1,-1,-1,-1,-1,-1,-1,-1,-1,-1,-1,-1,-1,-1,-1,-1,-1,-1,-1,-1,-1,-1,-1,-1,-1,-1,-1,-1,-1,-1,-1,-1,-1,-1,-1,-1,-1,-1,-1,-1,-1,-1,-1,-1,-1,-1,-1,-1,-1,-1,-1,-1,-1,-1,-1,-1,-1,-1,-1,-1,-1,-1,-1],"split_conditions":[5.94E2,2.44E2,9.983E3,3.3E1,5.498E3,1.1432077E0,-8.8491315E-1,7.0745707E-1,4.3140656E-1,5.557885E-1,-1.2997215E0,4.76E2,3.36E2,3.55E2,1.3114E4,7.2E1,1.8057444E1,4.5E1,1.3130803E1,4.1744742E-1,1.45E2,6.032E3,4.62E2,3.55E2,1.1679174E0,6.3613995E1,7.24E3,6.381875E-1,1.6502267E0,1.0369306E-1,8.8751394E-1,2E1,3.36587E-1,6E0,2.72E2,9.3E1,3.995198E1,5.5E1,1.428E3,-3.0587208E-1,5.210364E-1,1.6381392E0,1.03756584E2,7.940304E-1,8.8751394E-1,1.24E2,3.371819E1,6.6E2,-6.6941863E-1,6.35E2,9.7690285E1,6.97E2,6.84883E-1,6.381875E-1,-1.3996246E0,9.810772E-1,4.08E2,2.7867338E-1,2.356196E-1,-1.8391839E0,1.15E2,1.9E1,3.3E1,4.3E1,4.67E2,6.37E2,1.4E2,1.57E3,-4.3462536E-1,1.3433069E0,-1.9487703E0,1.063E3,5.3908348E1,1.57E3,1.365634E0,3.35E2,1.369771E2,2.85E2,3.493E3,2.52E2,1.69E2,3.4364963E-1,3.95E2,7.941954E-1,9.768576E-1,2.92E2,-2.0021911E-1,8.36E2,7.85E2,1.81E2,7.24E3,6.887E3,3.1E2,1.1990708E0,6.192E3,1.2650554E2,1.1856248E0,1.5417404E0,1.5728911E0,7.21E2,6.342365E-1,4.4836428E-2,8.453914E-2,8.761897E-2,1.3403812E-1,1.8438347E-1,1.2846123E-1,2.2738622E-1,1.5016805E-1,1.0299312E-1,1.5872477E-1,1.6976635E-1,2.161804E-1,1.4776736E-1,2.5039396E-1,4.1980144E-1,3.3849004E-1,6.6528074E-2,2.655506E-1,1.9596182E-1,1.515811E-1,2.620229E-1,3.3025143E-1,1.6618909E-1,2.379266E-1,2.3703451E-1,3.26516E-1,3.5775313E-1,3.1216416E-1,3.194464E-1,2.22204E-1,4.4009587E-1,1.9347309E-1,3.2597715E-1,2.4940196E-1,3.721062E-1,1.9991891E-1,3.847063E-1,5.399212E-1,4.2017242E-1,3.4721854E-1,4.2137867E-1,3.272941E-1,4.1423115E-1,6.106209E-1,5.564603E-1,6.810231E-1,3.9321026E-1,5.16116E-1,5.4464036E-1,4.9915224E-1,6.826698E-1,5.074165E-1,6.638037E-1,8.400772E-1,5.3347987E-1,6.966572E-1,8.740714E-1,6.0701E-1,6.8538886E-1,7.885289E-1,8.563542E-1,3.8855493E-1,9.034606E-1,9.5033854E-1,5.4464036E-1,6.7797637E-1,8.656002E-1,7.603474E-1,9.8098767E-1,1.0744548E0,9.970167E-1,8.707321E-1,5.9172314E-1,9.971759E-1,1.1990708E0,1.2302239E0,1.1368356E0,1.012144E0],"split_indices":[1,1,0,2,0,5,3,5,5,5,3,2,2,2,0,1,4,2,4,5,2,0,1,2,0,4,0,0,5,3,0,1,5,2,0,1,4,2,0,3,5,3,4,0,0,2,4,1,3,1,4,1,3,0,3,0,2,5,5,3,1,1,1,1,0,0,1,0,3,5,3,0,4,0,3,1,4,1,0,2,2,0,1,0,3,2,3,1,1,2,0,0,2,0,0,4,3,0,0,1,3,0,0,0,0,0,0,0,0,0,0,0,0,0,0,0,0,0,0,0,0,0,0,0,0,0,0,0,0,0,0,0,0,0,0,0,0,0,0,0,0,0,0,0,0,0,0,0,0,0,0,0,0,0,0,0,0,0,0,0,0,0,0,0,0,0,0,0,0,0,0,0,0,0,0,0,0,0,0],"split_type":[0,0,0,0,0,0,0,0,0,0,0,0,0,0,0,0,0,0,0,0,0,0,0,0,0,0,0,0,0,0,0,0,0,0,0,0,0,0,0,0,0,0,0,0,0,0,0,0,0,0,0,0,0,0,0,0,0,0,0,0,0,0,0,0,0,0,0,0,0,0,0,0,0,0,0,0,0,0,0,0,0,0,0,0,0,0,0,0,0,0,0,0,0,0,0,0,0,0,0,0,0,0,0,0,0,0,0,0,0,0,0,0,0,0,0,0,0,0,0,0,0,0,0,0,0,0,0,0,0,0,0,0,0,0,0,0,0,0,0,0,0,0,0,0,0,0,0,0,0,0,0,0,0,0,0,0,0,0,0,0,0,0,0,0,0,0,0,0,0,0,0,0,0,0,0,0,0,0,0],"sum_hessian":[1.344512E6,5.2115638E5,8.233556E5,1.8100936E5,3.4014703E5,6.619779E5,1.6137777E5,1.0144989E5,7.955948E4,2.4648508E5,9.366194E4,3.6388544E5,2.9809244E5,6.1204402E4,1.0017336E5,5.754954E4,4.3900355E4,3.662144E4,4.293803E4,5.4678168E4,1.9180692E5,1.5324953E4,7.8336984E4,3.491502E5,1.4735247E4,9.834416E4,1.9974828E5,4.4037896E3,5.6800613E4,9.166216E4,8.511206E3,3.991924E4,1.7630299E4,3.5935266E4,7.96509E3,8.952591E3,2.766885E4,1.2369118E4,3.0568914E4,1.3440861E4,4.123731E4,2.766611E4,1.6414081E5,6.813747E3,8.511206E3,1.1119738E4,6.721724E4,1.6955694E5,1.7959325E5,3.6938906E4,6.140525E4,3.840083E4,1.6134745E5,4.4037896E3,5.2396824E4,2.0794305E4,7.086785E4,1.5799656E4,2.4119582E4,1.0410828E4,7.2194707E3,1.3488719E4,2.2446547E4,2.3593586E3,5.6057314E3,3.255471E3,5.69712E3,2.2912385E4,4.7564663E3,8.882202E3,3.4869158E3,5.5353154E3,2.50336E4,3.1234531E3,1.0317408E4,2.2058496E4,1.9178812E4,1.6195533E4,1.1470576E4,7.368136E4,9.0459445E4,2.540711E3,8.579027E3,2.0440693E4,4.677655E4,8.22644E4,8.729253E4,8.3030805E4,9.656245E4,9.562083E3,2.7376824E4,2.304378E4,3.836147E4,1.5531592E4,2.2869234E4,1.1782621E5,4.352125E4,2.56745E4,2.6722324E4,3.188048E4,3.8987367E4,9.29667E3,6.502987E3,1.4250854E4,9.868729E3,2.1563408E3,8.254487E3,4.922534E3,2.2969368E3,4.827473E3,8.661245E3,3.6157969E3,1.883075E4,1.0130355E3,1.3463232E3,1.9100652E3,3.695666E3,1.5739761E2,3.0980732E3,3.3968733E3,2.3002466E3,7.936751E3,1.4975633E4,1.1547802E3,3.601686E3,6.571264E3,2.310938E3,1.3898221E3,2.0970935E3,4.237034E3,1.2982812E3,2.3831396E4,1.2022028E3,1.1557125E3,1.9677406E3,9.873993E3,4.4341437E2,6.6562134E3,1.5402283E4,1.4625269E4,4.553544E3,5.2919375E3,1.0903596E4,3.4835251E3,7.9870513E3,6.040823E4,1.3273133E4,8.786539E3,8.167291E4,3.209302E3,5.369725E3,4.128115E4,5.495401E3,4.555675E4,3.670765E4,2.4621445E4,6.2671086E4,7.904613E4,3.98467E3,4.4727832E4,5.1834617E4,7.9244297E3,1.6376533E3,1.7618771E4,9.758053E3,3.209302E3,1.9834477E4,2.5869271E4,1.2492197E4,1.0397277E4,1.2471957E4,1.0232668E5,1.549953E4,2.2057072E4,2.1464176E4,1.5531592E4,1.634889E4,2.7919488E4,1.106788E4],"tree_param":{"num_deleted":"0","num_feature":"6","num_nodes":"179","size_leaf_vector":"1"}},{"base_weights":[7.0445895E0,4.294023E0,8.78003E0,2.2249799E0,5.3898597E0,8.044273E0,1.1793734E1,1.5008426E0,3.1410573E0,4.8649116E0,6.768866E0,7.404159E0,8.824606E0,1.3778969E1,1.0580543E1,1.1045183E0,2.0142305E0,2.6354651E0,3.5703433E0,4.1154914E0,5.0789385E0,8.178644E0,6.492329E0,7.239768E0,1.1289794E0,7.842175E0,9.308112E0,6.168937E-1,1.4368684E1,1.0766159E1,8.579184E-1,8.261175E-1,1.5205959E0,1.7745491E0,3.0886369E0,2.0054967E0,2.8393621E0,2.7157936E0,3.9154267E0,3.3388898E0,4.3681984E0,4.2491155E0,5.2188225E0,7.675485E-1,8.579184E-1,4.611463E0,6.803887E0,6.8060365E0,7.773887E0,8.536247E0,7.423777E0,1.0630036E1,8.993103E0,6.168937E-1,1.5057528E1,9.483695E-1,1.1142164E1,6.400386E-1,1.0424176E0,1.2834172E0,1.8997625E0,1.3507138E0,2.0284395E0,2.0028672E0,3.542604E0,2.4838438E0,1.7295702E0,2.983855E0,2.1423335E0,2.5247393E0,3.1972015E0,2.8744407E0,4.144944E0,2.6939862E0,3.5327742E0,4.7739487E0,3.900707E0,3.472049E0,5.345399E0,5.3562913E0,4.26391E0,3.3221805E-1,4.9915595E0,7.677174E-1,6.4207277E0,6.1722426E0,7.15438E0,8.474293E0,7.1964827E0,7.5049677E0,8.895767E0,6.3750763E0,8.054582E0,1.1590946E0,9.97646E0,9.487101E0,7.656095E0,1.4903443E0,1.5204568E0,1.1746109E1,1.0647727E1,4.392414E-2,8.0873266E-2,7.795636E-2,1.24632195E-1,1.1379775E-1,1.5051688E-1,2.0550013E-1,1.4582205E-1,1.0037488E-1,1.5421467E-1,1.6532917E-1,2.0996204E-1,1.4333087E-1,2.4206515E-1,4.0576383E-1,3.2723686E-1,6.421212E-2,2.5740996E-1,1.9019428E-1,1.4698164E-1,2.5437024E-1,3.2169604E-1,1.6151406E-1,2.3075207E-1,2.2998312E-1,3.1559703E-1,3.3251202E-1,2.8350887E-1,3.0908164E-1,2.1561293E-1,4.259267E-1,1.8704237E-1,3.1504115E-1,2.4180739E-1,3.6036006E-1,1.9308424E-1,3.7319687E-1,5.2219814E-1,4.0653935E-1,3.3673957E-1,4.081357E-1,3.174572E-1,4.0476036E-1,5.9038115E-1,5.9151995E-1,5.105131E-1,3.7262627E-1,4.6509972E-1,5.26458E-1,4.825359E-1,7.7471274E-1,6.188304E-1,6.3639534E-1,4.0552196E-1,7.3088306E-1,4.5990968E-1,8.6301243E-1,5.867535E-1,6.628694E-1,7.81689E-1,8.277963E-1,3.7555227E-1,8.5682744E-1,9.041916E-1,5.26458E-1,6.5539414E-1,8.3951867E-1,7.349948E-1,9.482781E-1,1.0386312E0,9.647288E-1,8.42796E-1,5.723906E-1,9.6395105E-1,1.1590946E0,1.1892093E0,1.0989373E0,9.7839653E-1],"categories":[],"categories_nodes":[],"categories_segments":[],"categories_sizes":[],"default_left":[0,0,0,0,0,0,0,0,0,0,0,0,0,0,0,0,0,0,0,0,0,0,0,0,0,0,0,0,0,0,0,0,0,0,0,0,0,0,0,0,0,0,0,0,0,0,0,0,0,0,0,0,0,0,0,0,0,0,0,0,0,0,0,0,0,0,0,0,0,0,0,0,0,0,0,0,0,0,0,0,0,0,0,0,0,0,0,0,0,0,0,0,0,0,0,0,0,0,0,0,0,0,0,0,0,0,0,0,0,0,0,0,0,0,0,0,0,0,0,0,0,0,0,0,0,0,0,0,0,0,0,0,0,0,0,0,0,0,0,0,0,0,0,0,0,0,0,0,0,0,0,0,0,0,0,0,0,0,0,0,0,0,0,0,0,0,0,0,0,0,0,0,0,0,0,0,0,0,0],"id":3,"left_children":[1,3,5,7,9,11,13,15,17,19,21,23,25,27,29,31,33,35,37,39,41,43,45,47,-1,49,51,-1,53,55,-1,57,59,61,63,65,67,69,71,73,75,77,79,-1,-1,81,83,85,87,89,91,93,95,-1,97,-1,99,101,103,105,107,109,111,113,115,117,119,121,123,125,127,129,131,133,135,137,139,141,143,145,147,-1,149,-1,151,153,155,157,159,161,163,165,167,-1,169,171,173,-1,-1,175,177,-1,-1,-1,-1,-1,-1,-1,-1,-1,-1,-1,-1,-1,-1,-1,-1,-1,-1,-1,-1,-1,-1,-1,-1,-1,-1,-1,-1,-1,-1,-1,-1,-1,-1,-1,-1,-1,-1,-1,-1,-1,-1,-1,-1,-1,-1,-1,-1,-1,-1,-1,-1,-1,-1,-1,-1,-1,-1,-1,-1,-1,-1,-1,-1,-1,-1,-1,-1,-1,-1,-1,-1,-1,-1,-1,-1,-1,-1],"loss_changes":[5.9829E6,1.099324E6,1.703776E6,1.11326875E5,2.29326E5,3.0832E5,3.62808E5,1.9048031E4,1.60154375E4,3.6715E4,3.38705E4,2.16502E5,1.31978E5,2.56377E5,3.4489E4,6.107383E3,1.04639375E4,4.3193906E3,1.17395E4,9.921375E3,2.0613E4,2.657875E3,4.26745E4,7.5228E4,0E0,2.6442E4,7.7385E4,0E0,2.995E5,4.0991E4,0E0,1.2597168E3,1.8727852E3,3.5580625E3,3.605039E3,1.0544961E3,2.5315938E3,9.959375E2,6.7351875E3,1.4962031E3,7.194125E3,2.1852375E4,1.994025E4,0E0,0E0,4.9927188E3,2.078325E4,3.94955E4,5.8784E4,1.25675E4,3.7713E4,2.220525E4,9.9257E4,0E0,5.82E2,0E0,1.94265E4,5.6590625E2,7.6387305E2,3.9321484E2,5.1996484E2,8.053613E2,5.1640625E2,4.821045E2,6.426172E2,4.708047E2,2.0107324E2,2.1175781E3,3.4281445E2,1.1136367E3,7.995703E1,7.437383E2,6.00725E3,3.0376758E2,1.0299141E3,9.501156E3,1.4839375E3,2.6501719E3,7.6201875E3,1.86085E4,3.9038438E3,0E0,2.375E2,0E0,1.324775E4,2.57445E4,4.56075E4,2.65785E4,2.7978E4,2.5749562E4,9.70875E2,4.124625E3,8.3665E3,0E0,4.02725E3,1.84E4,1.5559675E5,0E0,0E0,3.02E2,1.0436E4,0E0,0E0,0E0,0E0,0E0,0E0,0E0,0E0,0E0,0E0,0E0,0E0,0E0,0E0,0E0,0E0,0E0,0E0,0E0,0E0,0E0,0E0,0E0,0E0,0E0,0E0,0E0,0E0,0E0,0E0,0E0,0E0,0E0,0E0,0E0,0E0,0E0,0E0,0E0,0E0,0E0,0E0,0E0,0E0,0E0,0E0,0E0,0E0,0E0,0E0,0E0,0E0,0E0,0E0,0E0,0E0,0E0,0E0,0E0,0E0,0E0,0E0,0E0,0E0,0E0,0E0,0E0,0E0,0E0,0E0,0E0,0E0,0E0,0E0,0E0,0E0,0E0,0E0],"parents":[2147483647,0,0,1,1,2,2,3,3,4,4,5,5,6,6,7,7,8,8,9,9,10,10,11,11,12,12,13,13,14,14,15,15,16,16,17,17,18,18,19,19,20,20,21,21,22,22,23,23,25,25,26,26,28,28,29,29,31,31,32,32,33,33,34,34,35,35,36,36,37,37,38,38,39,39,40,40,41,41,42,42,45,45,46,46,47,47,48,48,49,49,50,50,51,51,52,52,54,54,56,56,57,57,58,58,59,59,60,60,61,61,62,62,63,63,64,64,65,65,66,66,67,67,68,68,69,69,70,70,71,71,72,72,73,73,74,74,75,75,76,76,77,77,78,78,79,79,80,80,82,82,84,84,85,85,86,86,87,87,88,88,89,89,90,90,91,91,92,92,94,94,95,95,96,96,99,99,100,100],"right_children":[2,4,6,8,10,12,14,16,18,20,22,24,26,28,30,32,34,36,38,40,42,44,46,48,-1,50,52,-1,54,56,-1,58,60,62,64,66,68,70,72,74,76,78,80,-1,-1,82,84,86,88,90,92,94,96,-1,98,-1,100,102,104,106,108,110,112,114,116,118,120,122,124,126,128,130,132,134,136,138,140,142,144,146,148,-1,150,-1,152,154,156,158,160,162,164,166,168,-1,170,172,174,-1,-1,176,178,-1,-1,-1,-1,-1,-1,-1,-1,-1,-1,-1,-1,-1,-1,-1,-1,-1,-1,-1,-1,-1,-1,-1,-1,-1,-1,-1,-1,-1,-1,-1,-1,-1,-1,-1,-1,-1,-1,-1,-1,-1,-1,-1,-1,-1,-1,-1,-1,-1,-1,-1,-1,-1,-1,-1,-1,-1,-1,-1,-1,-1,-1,-1,-1,-1,-1,-1,-1,-1,-1,-1,-1,-1,-1,-1,-1,-1,-1],"split_conditions":[5.94E2,2.44E2,9.983E3,3.3E1,5.498E3,1.1432077E0,-8.8491315E-1,7.0745707E-1,4.3140656E-1,5.557885E-1,-1.2997215E0,4.76E2,3.36E2,3.55E2,1.3114E4,5.4E1,1.8057444E1,4.5E1,1.3130803E1,4.1744742E-1,1.45E2,6.032E3,4.62E2,3.77E2,1.1289794E0,6.3613995E1,7.24E3,6.168937E-1,1.6502267E0,1.0369306E-1,8.579184E-1,2.339831E-1,3.36587E-1,6E0,2.72E2,9.3E1,3.995198E1,5.5E1,1.428E3,-3.0587208E-1,5.210364E-1,1.6381392E0,1.7064519E2,7.675485E-1,8.579184E-1,1.24E2,3.371819E1,1.0693623E2,-8.1573546E-1,6.35E2,9.7690285E1,6.97E2,6.84883E-1,6.168937E-1,-1.3996246E0,9.483695E-1,4.08E2,7E0,1.8E1,2.356196E-1,1.15E2,1.9E1,3.3E1,4.3E1,4.67E2,6.37E2,1.4E2,1.57E3,-4.3462536E-1,1.3433069E0,2.276E3,1.063E3,5.3908348E1,1.57E3,1.365634E0,3.35E2,1.369771E2,2.85E2,3.493E3,-9.7505385E-1,1.8619098E2,3.3221805E-1,3.95E2,7.677174E-1,5.784E3,1.03756584E2,1.546632E2,8.36E2,7.85E2,1.81E2,6.887E3,6.887E3,3.1E2,1.1590946E0,6.192E3,1.2650554E2,1.1856248E0,1.4903443E0,1.5204568E0,7.21E2,6.342365E-1,4.392414E-2,8.0873266E-2,7.795636E-2,1.24632195E-1,1.1379775E-1,1.5051688E-1,2.0550013E-1,1.4582205E-1,1.0037488E-1,1.5421467E-1,1.6532917E-1,2.0996204E-1,1.4333087E-1,2.4206515E-1,4.0576383E-1,3.2723686E-1,6.421212E-2,2.5740996E-1,1.9019428E-1,1.4698164E-1,2.5437024E-1,3.2169604E-1,1.6151406E-1,2.3075207E-1,2.2998312E-1,3.1559703E-1,3.3251202E-1,2.8350887E-1,3.0908164E-1,2.1561293E-1,4.259267E-1,1.8704237E-1,3.1504115E-1,2.4180739E-1,3.6036006E-1,1.9308424E-1,3.7319687E-1,5.2219814E-1,4.0653935E-1,3.3673957E-1,4.081357E-1,3.174572E-1,4.0476036E-1,5.9038115E-1,5.9151995E-1,5.105131E-1,3.7262627E-1,4.6509972E-1,5.26458E-1,4.825359E-1,7.7471274E-1,6.188304E-1,6.3639534E-1,4.0552196E-1,7.3088306E-1,4.5990968E-1,8.6301243E-1,5.867535E-1,6.628694E-1,7.81689E-1,8.277963E-1,3.7555227E-1,8.5682744E-1,9.041916E-1,5.26458E-1,6.5539414E-1,8.3951867E-1,7.349948E-1,9.482781E-1,1.0386312E0,9.647288E-1,8.42796E-1,5.723906E-1,9.6395105E-1,1.1590946E0,1.1892093E0,1.0989373E0,9.7839653E-1],"split_indices":[1,1,0,2,0,5,3,5,5,5,3,2,2,2,0,1,4,2,4,5,2,0,1,2,0,4,0,0,5,3,0,5,5,2,0,1,4,2,0,3,5,3,4,0,0,2,4,4,3,1,4,1,3,0,3,0,2,2,1,5,1,1,1,1,0,0,1,0,3,5,0,0,4,0,3,1,4,1,0,3,4,0,1,0,0,4,4,1,1,2,0,0,2,0,0,4,3,0,0,1,3,0,0,0,0,0,0,0,0,0,0,0,0,0,0,0,0,0,0,0,0,0,0,0,0,0,0,0,0,0,0,0,0,0,0,0,0,0,0,0,0,0,0,0,0,0,0,0,0,0,0,0,0,0,0,0,0,0,0,0,0,0,0,0,0,0,0,0,0,0,0,0,0,0,0,0,0,0,0],"split_type":[0,0,0,0,0,0,0,0,0,0,0,0,0,0,0,0,0,0,0,0,0,0,0,0,0,0,0,0,0,0,0,0,0,0,0,0,0,0,0,0,0,0,0,0,0,0,0,0,0,0,0,0,0,0,0,0,0,0,0,0,0,0,0,0,0,0,0,0,0,0,0,0,0,0,0,0,0,0,0,0,0,0,0,0,0,0,0,0,0,0,0,0,0,0,0,0,0,0,0,0,0,0,0,0,0,0,0,0,0,0,0,0,0,0,0,0,0,0,0,0,0,0,0,0,0,0,0,0,0,0,0,0,0,0,0,0,0,0,0,0,0,0,0,0,0,0,0,0,0,0,0,0,0,0,0,0,0,0,0,0,0,0,0,0,0,0,0,0,0,0,0,0,0,0,0,0,0,0,0],"sum_hessian":[1.2534049E6,4.848913E5,7.685135E5,1.6789734E5,3.1699397E5,6.177136E5,1.5079984E5,9.378002E4,7.411731E4,2.2960261E5,8.739136E4,3.3935838E5,2.7835528E5,5.7192656E4,9.3607195E4,5.293669E4,4.0843336E4,3.404785E4,4.006946E4,5.102035E4,1.7858225E5,1.43206E4,7.3070766E4,3.25589E5,1.3769391E4,9.18216E4,1.8653367E5,4.115262E3,5.3077395E4,8.5653805E4,7.9533857E3,3.1731752E4,2.120494E4,3.3403543E4,7.439792E3,8.34003E3,2.5707822E4,1.1537167E4,2.8532293E4,1.2539288E4,3.8481062E4,2.5776086E4,1.5280617E5,6.3672144E3,7.9533857E3,1.0390648E4,6.2680113E4,1.7969783E5,1.4589116E5,3.4517652E4,5.730395E4,3.588381E4,1.5064986E5,4.115262E3,4.8962133E4,1.9431254E4,6.6222555E4,1.7084486E4,1.4647266E4,1.306389E4,8.1410503E3,1.2530798E4,2.0872746E4,2.201596E3,5.2381963E3,3.0347446E3,5.3052856E3,2.1279078E4,4.428745E3,8.278663E3,3.258504E3,5.1646973E3,2.3367596E4,2.9137996E3,9.625489E3,2.0584516E4,1.7896547E4,1.5091931E4,1.0684156E4,1.3356336E5,1.9242803E4,2.374027E3,8.016622E3,1.910084E4,4.3579273E4,6.375183E4,1.1594601E5,6.590987E4,7.998129E4,8.935605E3,2.5582047E4,2.1532889E4,3.577106E4,1.4513525E4,2.1370283E4,1.0999529E5,4.0654574E4,2.39915E4,2.4970633E4,2.979077E4,3.643178E4,7.828761E3,9.255725E3,6.4222153E3,8.225051E3,7.9203896E3,5.1435E3,6.003884E3,2.1371665E3,4.4762437E3,8.054554E3,3.3550688E3,1.7517676E4,9.435862E2,1.2580098E3,1.7850674E3,3.453129E3,1.4732846E2,2.887416E3,3.1620984E3,2.143187E3,7.38654E3,1.3892538E4,1.0736179E3,3.3551272E3,6.118958E3,2.159705E3,2.3814443E3,8.7705963E2,3.9558564E3,1.2088411E3,2.2244277E4,1.1233195E3,1.0802103E3,1.8335891E3,9.210761E3,4.1472784E2,6.1990884E3,1.4385427E4,1.365463E4,4.2419175E3,4.9358096E3,1.0156121E4,3.2220396E3,7.462116E3,4.1391785E4,9.2171586E4,8.0701636E3,1.117264E4,2.9990974E3,5.0175244E3,6.4865225E3,3.7092754E4,5.84519E4,5.299929E3,1.0933181E5,6.6141953E3,6.2186242E4,3.723622E3,4.1776133E4,3.820516E4,7.4050796E3,1.530526E3,7.933188E3,1.764886E4,2.9990974E3,1.8533791E4,2.4097645E4,1.1673414E4,9.715808E3,1.1654476E4,9.552958E4,1.4465714E4,2.0597742E4,2.0056832E4,1.4513525E4,1.5277245E4,2.6089336E4,1.0342446E4],"tree_param":{"num_deleted":"0","num_feature":"6","num_nodes":"179","size_leaf_vector":"1"}},{"base_weights":[6.82687E0,4.169956E0,8.497834E0,2.1675677E0,5.22559E0,7.7881107E0,1.1400626E1,1.4672818E0,3.0467355E0,4.719052E0,6.5539165E0,7.1729293E0,8.537039E0,1.3319643E1,1.02278805E1,1.0852908E0,1.9566507E0,2.562039E0,3.4566674E0,3.9845243E0,4.9293118E0,7.905994E0,6.28818E0,7.0143323E0,1.091339E0,7.5874085E0,9.004332E0,5.963084E-1,1.3889708E1,1.0407307E1,8.293085E-1,8.639772E-1,1.5680043E0,1.72546E0,2.987585E0,1.9454595E0,2.762124E0,2.6308382E0,3.7898788E0,3.2327583E0,4.229123E0,4.1210904E0,5.0656524E0,7.419483E-1,8.293085E-1,4.4581037E0,6.591952E0,6.6025934E0,7.5199823E0,8.251778E0,7.1863575E0,1.0275708E1,8.701097E0,5.963084E-1,1.4555602E1,9.1675204E-1,1.0770774E1,6.083858E-1,1.0253947E0,1.3246734E0,1.9153892E0,1.3141797E0,1.9715393E0,1.939677E0,3.4248393E0,2.4072726E0,1.6784912E0,2.9039881E0,2.0793524E0,2.4476144E0,3.0908227E0,4.2037144E0,3.2348928E0,2.6085875E0,3.420278E0,4.6217422E0,3.7766557E0,3.3668E0,5.185584E0,5.199987E0,4.133692E0,3.211673E-1,4.825387E0,7.4212176E-1,6.226936E0,5.9808283E0,6.9448953E0,8.197735E0,6.9612603E0,7.2546597E0,8.599343E0,6.1627345E0,7.8033175E0,1.1204505E0,9.643893E0,9.180761E0,7.403704E0,1.4406612E0,1.4697698E0,1.135456E1,1.0292789E1,4.517821E-2,8.181441E-2,8.528556E-2,1.2679176E-1,1.745332E-1,1.2106258E-1,2.1439269E-1,1.4162253E-1,9.784075E-2,1.498768E-1,1.6104539E-1,2.039806E-1,1.3905661E-1,2.3401268E-1,3.9219138E-1,3.1635913E-1,6.1926514E-2,2.4949853E-1,1.3952145E-1,1.8296318E-1,2.4694143E-1,3.1348976E-1,1.5701145E-1,2.2382109E-1,2.2317962E-1,3.0503967E-1,3.3462477E-1,2.9135206E-1,4.689456E-1,3.7775278E-1,3.39839E-1,1.7408247E-1,3.0446523E-1,2.3435207E-1,3.4891114E-1,1.8646644E-1,3.620812E-1,5.050759E-1,3.9337015E-1,3.2665238E-1,3.953621E-1,3.0797628E-1,3.9574617E-1,5.708197E-1,5.741507E-1,4.9565616E-1,3.621794E-1,4.5005438E-1,5.0888E-1,4.664738E-1,6.42666E-1,4.7018796E-1,6.1678237E-1,3.9205074E-1,7.0962375E-1,4.4493648E-1,8.348835E-1,5.671708E-1,6.411121E-1,7.56251E-1,8.001898E-1,3.6297977E-1,8.439644E-1,8.884994E-1,5.0888E-1,6.335651E-1,8.1419414E-1,7.104868E-1,9.166582E-1,1.004001E0,9.335336E-1,8.15828E-1,5.5371696E-1,9.3183404E-1,1.1204505E0,1.1495618E0,1.0623018E0,9.4577324E-1],"categories":[],"categories_nodes":[],"categories_segments":[],"categories_sizes":[],"default_left":[0,0,0,0,0,0,0,0,0,0,0,0,0,0,0,0,0,0,0,0,0,0,0,0,0,0,0,0,0,0,0,0,0,0,0,0,0,0,0,0,0,0,0,0,0,0,0,0,0,0,0,0,0,0,0,0,0,0,0,0,0,0,0,0,0,0,0,0,0,0,0,0,0,0,0,0,0,0,0,0,0,0,0,0,0,0,0,0,0,0,0,0,0,0,0,0,0,0,0,0,0,0,0,0,0,0,0,0,0,0,0,0,0,0,0,0,0,0,0,0,0,0,0,0,0,0,0,0,0,0,0,0,0,0,0,0,0,0,0,0,0,0,0,0,0,0,0,0,0,0,0,0,0,0,0,0,0,0,0,0,0,0,0,0,0,0,0,0,0,0,0,0,0,0,0,0,0,0,0],"id":4,"left_children":[1,3,5,7,9,11,13,15,17,19,21,23,25,27,29,31,33,35,37,39,41,43,45,47,-1,49,51,-1,53,55,-1,57,59,61,63,65,67,69,71,73,75,77,79,-1,-1,81,83,85,87,89,91,93,95,-1,97,-1,99,101,103,105,107,109,111,113,115,117,119,121,123,125,127,129,131,133,135,137,139,141,143,145,147,-1,149,-1,151,153,155,157,159,161,163,165,167,-1,169,171,173,-1,-1,175,177,-1,-1,-1,-1,-1,-1,-1,-1,-1,-1,-1,-1,-1,-1,-1,-1,-1,-1,-1,-1,-1,-1,-1,-1,-1,-1,-1,-1,-1,-1,-1,-1,-1,-1,-1,-1,-1,-1,-1,-1,-1,-1,-1,-1,-1,-1,-1,-1,-1,-1,-1,-1,-1,-1,-1,-1,-1,-1,-1,-1,-1,-1,-1,-1,-1,-1,-1,-1,-1,-1,-1,-1,-1,-1,-1,-1,-1,-1],"loss_changes":[5.18714E6,9.5349E5,1.477476E6,9.583019E4,1.986085E5,2.65332E5,3.16764E5,1.6173422E4,1.36486875E4,3.29185E4,2.91045E4,1.87476E5,1.15108E5,2.23852E5,3.0093E4,5.177215E3,9.002922E3,3.8522031E3,1.0214906E4,8.666E3,1.820675E4,2.3016875E3,3.774975E4,6.3016E4,0E0,2.26295E4,6.6875E4,0E0,2.61507E5,3.577E4,0E0,1.3613828E3,1.257875E3,3.1063672E3,3.124207E3,9.1306445E2,2.2572812E3,8.4402344E2,6.0283438E3,1.3004062E3,6.277375E3,1.9177375E4,1.7692E4,0E0,0E0,4.349453E3,1.7509E4,3.54475E4,5.13825E4,1.0958E4,3.35855E4,1.93615E4,8.7299E4,0E0,4.67E2,0E0,1.6934E4,4.1260254E2,8.334883E2,4.0079004E2,6.7787305E2,6.951543E2,4.385547E2,4.1136377E2,5.525E2,4.111914E2,1.7673535E2,1.9189062E3,2.9202344E2,9.441914E2,6.5603516E1,3.052875E3,2.7249922E3,2.5336523E2,9.018125E2,8.1435312E3,1.2530312E3,2.286125E3,6.2676562E3,1.624975E4,3.2701562E3,0E0,1.9578125E2,0E0,1.2224125E4,2.2775E4,4.0611E4,2.330425E4,2.45175E4,2.2475E4,8.4225E2,3.5901875E3,7.679125E3,0E0,3.49175E3,1.5977E4,1.3551912E5,0E0,0E0,2.335E2,9.08675E3,0E0,0E0,0E0,0E0,0E0,0E0,0E0,0E0,0E0,0E0,0E0,0E0,0E0,0E0,0E0,0E0,0E0,0E0,0E0,0E0,0E0,0E0,0E0,0E0,0E0,0E0,0E0,0E0,0E0,0E0,0E0,0E0,0E0,0E0,0E0,0E0,0E0,0E0,0E0,0E0,0E0,0E0,0E0,0E0,0E0,0E0,0E0,0E0,0E0,0E0,0E0,0E0,0E0,0E0,0E0,0E0,0E0,0E0,0E0,0E0,0E0,0E0,0E0,0E0,0E0,0E0,0E0,0E0,0E0,0E0,0E0,0E0,0E0,0E0,0E0,0E0,0E0,0E0],"parents":[2147483647,0,0,1,1,2,2,3,3,4,4,5,5,6,6,7,7,8,8,9,9,10,10,11,11,12,12,13,13,14,14,15,15,16,16,17,17,18,18,19,19,20,20,21,21,22,22,23,23,25,25,26,26,28,28,29,29,31,31,32,32,33,33,34,34,35,35,36,36,37,37,38,38,39,39,40,40,41,41,42,42,45,45,46,46,47,47,48,48,49,49,50,50,51,51,52,52,54,54,56,56,57,57,58,58,59,59,60,60,61,61,62,62,63,63,64,64,65,65,66,66,67,67,68,68,69,69,70,70,71,71,72,72,73,73,74,74,75,75,76,76,77,77,78,78,79,79,80,80,82,82,84,84,85,85,86,86,87,87,88,88,89,89,90,90,91,91,92,92,94,94,95,95,96,96,99,99,100,100],"right_children":[2,4,6,8,10,12,14,16,18,20,22,24,26,28,30,32,34,36,38,40,42,44,46,48,-1,50,52,-1,54,56,-1,58,60,62,64,66,68,70,72,74,76,78,80,-1,-1,82,84,86,88,90,92,94,96,-1,98,-1,100,102,104,106,108,110,112,114,116,118,120,122,124,126,128,130,132,134,136,138,140,142,144,146,148,-1,150,-1,152,154,156,158,160,162,164,166,168,-1,170,172,174,-1,-1,176,178,-1,-1,-1,-1,-1,-1,-1,-1,-1,-1,-1,-1,-1,-1,-1,-1,-1,-1,-1,-1,-1,-1,-1,-1,-1,-1,-1,-1,-1,-1,-1,-1,-1,-1,-1,-1,-1,-1,-1,-1,-1,-1,-1,-1,-1,-1,-1,-1,-1,-1,-1,-1,-1,-1,-1,-1,-1,-1,-1,-1,-1,-1,-1,-1,-1,-1,-1,-1,-1,-1,-1,-1,-1,-1,-1,-1,-1,-1],"split_conditions":[5.94E2,2.44E2,9.983E3,3.3E1,5.498E3,1.1432077E0,-8.8491315E-1,7.0745707E-1,4.3140656E-1,5.557885E-1,-1.2997215E0,4.76E2,3.36E2,3.55E2,1.3114E4,7.2E1,1.8057444E1,4.5E1,1.3130803E1,4.1744742E-1,1.45E2,6.032E3,4.62E2,3.77E2,1.091339E0,6.3613995E1,7.24E3,5.963084E-1,1.6502267E0,1.0369306E-1,8.293085E-1,2E1,3.36587E-1,6E0,2.72E2,9.3E1,3.995198E1,5.5E1,2.2902262E1,-3.0587208E-1,5.210364E-1,1.6381392E0,1.7064519E2,7.419483E-1,8.293085E-1,1.24E2,3.371819E1,1.0693623E2,-8.1573546E-1,6.35E2,9.7690285E1,6.97E2,6.84883E-1,5.963084E-1,-1.3996246E0,9.1675204E-1,4.08E2,2.7867338E-1,2.356196E-1,-1.8391839E0,1.15E2,1.9E1,3.3E1,4.3E1,4.67E2,6.37E2,9.329148E0,1.57E3,-4.3462536E-1,1.3433069E0,-1.9487703E0,5.337884E-1,8.360509E1,1.57E3,1.365634E0,3.35E2,1.369771E2,2.85E2,3.493E3,-9.7505385E-1,1.8619098E2,3.211673E-1,3.95E2,7.4212176E-1,9.768576E-1,1.03756584E2,1.546632E2,8.36E2,7.85E2,1.81E2,7.24E3,6.887E3,3.1E2,1.1204505E0,6.192E3,1.2650554E2,1.1856248E0,1.4406612E0,1.4697698E0,7.21E2,6.342365E-1,4.517821E-2,8.181441E-2,8.528556E-2,1.2679176E-1,1.745332E-1,1.2106258E-1,2.1439269E-1,1.4162253E-1,9.784075E-2,1.498768E-1,1.6104539E-1,2.039806E-1,1.3905661E-1,2.3401268E-1,3.9219138E-1,3.1635913E-1,6.1926514E-2,2.4949853E-1,1.3952145E-1,1.8296318E-1,2.4694143E-1,3.1348976E-1,1.5701145E-1,2.2382109E-1,2.2317962E-1,3.0503967E-1,3.3462477E-1,2.9135206E-1,4.689456E-1,3.7775278E-1,3.39839E-1,1.7408247E-1,3.0446523E-1,2.3435207E-1,3.4891114E-1,1.8646644E-1,3.620812E-1,5.050759E-1,3.9337015E-1,3.2665238E-1,3.953621E-1,3.0797628E-1,3.9574617E-1,5.708197E-1,5.741507E-1,4.9565616E-1,3.621794E-1,4.5005438E-1,5.0888E-1,4.664738E-1,6.42666E-1,4.7018796E-1,6.1678237E-1,3.9205074E-1,7.0962375E-1,4.4493648E-1,8.348835E-1,5.671708E-1,6.411121E-1,7.56251E-1,8.001898E-1,3.6297977E-1,8.439644E-1,8.884994E-1,5.0888E-1,6.335651E-1,8.1419414E-1,7.104868E-1,9.166582E-1,1.004001E0,9.335336E-1,8.15828E-1,5.5371696E-1,9.3183404E-1,1.1204505E0,1.1495618E0,1.0623018E0,9.4577324E-1],"split_indices":[1,1,0,2,0,5,3,5,5,5,3,2,2,2,0,1,4,2,4,5,2,0,1,2,0,4,0,0,5,3,0,1,5,2,0,1,4,2,4,3,5,3,4,0,0,2,4,4,3,1,4,1,3,0,3,0,2,5,5,3,1,1,1,1,0,0,4,0,3,5,3,5,4,0,3,1,4,1,0,3,4,0,1,0,3,4,4,1,1,2,0,0,2,0,0,4,3,0,0,1,3,0,0,0,0,0,0,0,0,0,0,0,0,0,0,0,0,0,0,0,0,0,0,0,0,0,0,0,0,0,0,0,0,0,0,0,0,0,0,0,0,0,0,0,0,0,0,0,0,0,0,0,0,0,0,0,0,0,0,0,0,0,0,0,0,0,0,0,0,0,0,0,0,0,0,0,0,0,0],"split_type":[0,0,0,0,0,0,0,0,0,0,0,0,0,0,0,0,0,0,0,0,0,0,0,0,0,0,0,0,0,0,0,0,0,0,0,0,0,0,0,0,0,0,0,0,0,0,0,0,0,0,0,0,0,0,0,0,0,0,0,0,0,0,0,0,0,0,0,0,0,0,0,0,0,0,0,0,0,0,0,0,0,0,0,0,0,0,0,0,0,0,0,0,0,0,0,0,0,0,0,0,0,0,0,0,0,0,0,0,0,0,0,0,0,0,0,0,0,0,0,0,0,0,0,0,0,0,0,0,0,0,0,0,0,0,0,0,0,0,0,0,0,0,0,0,0,0,0,0,0,0,0,0,0,0,0,0,0,0,0,0,0,0,0,0,0,0,0,0,0,0,0,0,0,0,0,0,0,0,0],"sum_hessian":[1.1684132E6,4.5111997E5,7.1729325E5,1.5573164E5,2.953883E5,5.763779E5,1.4091539E5,8.6692375E4,6.9039266E4,2.1385123E5,8.153708E4,3.1645816E5,2.5991969E5,5.3443914E4,8.7471484E4,4.870104E4,3.799134E4,3.164931E4,3.7389957E4,4.760697E4,1.6624428E5,1.3382094E4,6.8154984E4,3.035913E5,1.2866852E4,8.573264E4,1.7418703E5,3.8456523E3,4.9598258E4,8.003934E4,7.4321377E3,3.34078E4,1.5293236E4,3.1042352E4,6.9489863E3,7.7690386E3,2.3880271E4,1.0760384E4,2.6629572E4,1.1700625E4,3.590634E4,2.4011254E4,1.4223302E5,5.949956E3,7.4321377E3,9.70937E3,5.8445613E4,1.6735336E5,1.3623795E5,3.225517E4,5.3477473E4,3.3531805E4,1.4065523E5,3.8456523E3,4.575261E4,1.8157559E4,6.1881785E4,1.295745E4,2.045035E4,9.013321E3,6.279915E3,1.1638131E4,1.940422E4,2.05422E3,4.894766E3,2.8293066E3,4.939732E3,1.975727E4,4.123002E3,7.715255E3,3.0451284E3,1.5240564E4,1.1389007E4,2.7188884E3,8.981736E3,1.9207838E4,1.6698504E4,1.4061189E4,9.950063E3,1.2430077E5,1.7932248E4,2.2182769E3,7.4910938E3,1.7848822E4,4.059679E4,5.9437414E4,1.07915945E5,6.154712E4,7.469083E4,8.350204E3,2.3904965E4,2.012105E4,3.335642E4,1.3562201E4,1.9969602E4,1.02679414E5,3.797582E4,2.2418834E4,2.3333773E4,2.7838057E4,3.4043727E4,7.447808E3,5.509642E3,1.1975981E4,8.474369E3,1.900701E3,7.1126206E3,4.29168E3,1.9882351E3,4.1498647E3,7.4882656E3,3.1124575E3,1.6291764E4,8.787252E2,1.1754948E3,1.6682692E3,3.226497E3,1.3801276E2,2.691294E3,1.7451886E3,3.1945432E3,6.8744653E3,1.2882805E4,9.979145E2,3.1250872E3,5.696863E3,2.0183923E3,1.217254E3,1.8278745E3,7.106986E3,8.133579E3,1.0258449E4,1.1305582E3,1.0096644E3,1.7092241E3,8.593804E3,3.8793262E2,5.7726104E3,1.3435229E4,1.2747752E4,3.950751E3,4.6030605E3,9.458129E3,2.9784666E3,6.971597E3,3.852813E4,8.577264E4,7.5020986E3,1.0430149E4,2.8026763E3,4.688417E3,3.5887188E4,4.709602E3,5.4485445E4,4.951968E3,1.0174003E5,6.175918E3,5.806743E4,3.4796929E3,3.9017926E4,3.5672906E4,6.919777E3,1.430427E3,1.5374859E4,8.530105E3,2.8026763E3,1.7318375E4,2.2448113E4,1.0908309E4,9.079016E3,1.0890586E4,8.917969E4,1.3499726E4,1.9234072E4,1.8741746E4,1.3562201E4,1.4275855E4,2.4379156E4,9.664572E3],"tree_param":{"num_deleted":"0","num_feature":"6","num_nodes":"179","size_leaf_vector":"1"}},{"base_weights":[6.616432E0,4.049971E0,8.225239E0,2.112011E0,5.066859E0,7.5407166E0,1.1020623E1,1.4346302E0,2.9560997E0,4.5781984E0,6.3459177E0,6.94984E0,8.259009E0,1.2875625E1,9.886974E0,1.2414582E0,2.3300734E0,2.4911654E0,3.347837E0,3.8577225E0,4.784949E0,7.6424313E0,6.0905976E0,6.7968554E0,1.0549525E0,7.340771E0,8.710813E0,5.764079E-1,1.3426696E1,1.0060416E1,8.0165166E-1,7.823015E-1,1.445623E0,1.8739314E0,3.2343454E0,1.8874189E0,2.6876223E0,2.5487833E0,3.6700957E0,3.1291711E0,4.09482E0,3.9976375E0,4.917857E0,7.172007E-1,8.0165166E-1,4.3098683E0,6.3867936E0,6.4066267E0,7.2747E0,7.9767933E0,6.9563055E0,9.944919E0,8.416315E0,5.764079E-1,1.4070407E1,8.8618803E-1,1.0411762E1,5.111642E-1,9.7508836E-1,8.526295E-1,1.6115737E0,9.602456E-1,2.0145736E0,1.23139404E-1,3.3110092E0,2.3327188E0,1.6293159E0,2.8269694E0,2.0185497E0,2.3731415E0,2.988017E0,4.0697546E0,3.1337059E0,2.5251255E0,3.3105168E0,4.4746857E0,3.6569252E0,3.265348E0,5.031387E0,5.049173E0,4.0080247E0,3.1048462E-1,4.6647587E0,7.1737903E-1,6.0392528E0,5.796212E0,6.743273E0,7.930561E0,6.734032E0,7.0126867E0,8.312804E0,5.957477E0,7.559501E0,1.038152E1,8.711497E-1,6.751696E0,8.740246E0,1.3926338E0,1.4207724E0,1.097606E1,9.949682E0,4.12046E-2,6.426244E-2,8.24567E-2,1.11043714E-1,4.528546E-2,8.965643E-2,1.3256164E-1,1.7096576E-1,6.4997174E-2,1.1595192E-1,1.5785979E-1,2.1952009E-1,3.790684E-1,3.0584443E-1,5.966674E-2,2.418007E-1,1.3510709E-1,1.7779581E-1,2.3971982E-1,3.056173E-1,1.52674E-1,2.1712334E-1,2.1661416E-1,2.9483184E-1,3.1088376E-1,2.6415366E-1,4.5333916E-1,3.661728E-1,3.2917604E-1,1.6873914E-1,2.9423696E-1,2.2701387E-1,3.37736E-1,1.8005763E-1,3.5134244E-1,4.885345E-1,3.806494E-1,3.1694576E-1,3.8304314E-1,2.9883924E-1,3.8716742E-1,5.519139E-1,5.573177E-1,4.8134986E-1,3.521162E-1,4.355247E-1,4.918861E-1,4.5094725E-1,6.235325E-1,4.546601E-1,5.9787047E-1,3.7902972E-1,6.8916833E-1,4.3047276E-1,8.077101E-1,5.4823935E-1,6.2009203E-1,7.3168E-1,7.7350277E-1,3.5082287E-1,8.0010825E-1,8.4514916E-1,4.918861E-1,6.1246437E-1,7.895752E-1,6.867952E-1,1.083094E0,9.8345214E-1,5.745665E-1,8.500717E-1,8.8322157E-1,4.8401412E-1,1.083094E0,1.1112355E0,1.0268873E0,9.1423666E-1],"categories":[],"categories_nodes":[],"categories_segments":[],"categories_sizes":[],"default_left":[0,0,0,0,0,0,0,0,0,0,0,0,0,0,0,0,0,0,0,0,0,0,0,0,0,0,0,0,0,0,0,0,0,0,0,0,0,0,0,0,0,0,0,0,0,0,0,0,0,0,0,0,0,0,0,0,0,0,0,0,0,0,0,0,0,0,0,0,0,0,0,0,0,0,0,0,0,0,0,0,0,0,0,0,0,0,0,0,0,0,0,0,0,0,0,0,0,0,0,0,0,0,0,0,0,0,0,0,0,0,0,0,0,0,0,0,0,0,0,0,0,0,0,0,0,0,0,0,0,0,0,0,0,0,0,0,0,0,0,0,0,0,0,0,0,0,0,0,0,0,0,0,0,0,0,0,0,0,0,0,0,0,0,0,0,0,0,0,0,0,0,0,0,0,0,0,0],"id":5,"left_children":[1,3,5,7,9,11,13,15,17,19,21,23,25,27,29,31,33,35,37,39,41,43,45,47,-1,49,51,-1,53,55,-1,57,59,61,63,65,67,69,71,73,75,77,79,-1,-1,81,83,85,87,89,91,93,95,-1,97,-1,99,101,103,105,107,109,111,-1,113,115,117,119,121,123,125,127,129,131,133,135,137,139,141,143,145,-1,147,-1,149,151,153,155,157,159,161,163,165,167,-1,169,171,-1,-1,173,175,-1,-1,-1,-1,-1,-1,-1,-1,-1,-1,-1,-1,-1,-1,-1,-1,-1,-1,-1,-1,-1,-1,-1,-1,-1,-1,-1,-1,-1,-1,-1,-1,-1,-1,-1,-1,-1,-1,-1,-1,-1,-1,-1,-1,-1,-1,-1,-1,-1,-1,-1,-1,-1,-1,-1,-1,-1,-1,-1,-1,-1,-1,-1,-1,-1,-1,-1,-1,-1,-1,-1,-1,-1,-1,-1,-1],"loss_changes":[4.496672E6,8.26926E5,1.28072E6,8.253025E4,1.718875E5,2.28032E5,2.76558E5,1.3822516E4,1.1643125E4,2.95615E4,2.499875E4,1.62247E5,1.00464E5,1.95452E5,2.62565E4,6.1566953E3,5.8038125E3,3.4381406E3,8.909781E3,7.5885625E3,1.60825E4,1.9914375E3,3.339525E4,5.2595E4,0E0,1.937E4,5.8847E4,0E0,2.283325E5,3.12105E4,0E0,1.046206E3,4.4631562E3,1.1832617E3,6.807344E2,7.8841797E2,2.0136406E3,7.135703E2,5.241E3,1.1296875E3,5.475125E3,1.6830656E4,1.570425E4,0E0,0E0,3.7882188E3,1.473025E4,3.18565E4,4.4912E4,9.552875E3,2.98895E4,1.6587E4,7.0601E4,0E0,3.67E2,0E0,1.476E4,9.946289E1,2.2108301E2,1.615664E2,9.666875E2,5.983545E1,6.0320703E2,0E0,4.7416016E2,3.591797E2,1.5653516E2,1.7448281E3,2.4796973E2,7.985664E2,5.345703E1,2.5919375E3,2.3728828E3,2.1130078E2,7.8833594E2,6.974E3,1.0541094E3,1.9704844E3,5.1260625E3,1.41525E4,2.7306562E3,0E0,1.5978125E2,0E0,1.0932E4,2.01625E4,3.62005E4,2.043825E4,2.148875E4,1.9616031E4,7.3375E2,3.124E3,7.0315E3,5.3715E3,0E0,3.7468188E4,3.9251E4,0E0,0E0,1.7475E2,7.90975E3,0E0,0E0,0E0,0E0,0E0,0E0,0E0,0E0,0E0,0E0,0E0,0E0,0E0,0E0,0E0,0E0,0E0,0E0,0E0,0E0,0E0,0E0,0E0,0E0,0E0,0E0,0E0,0E0,0E0,0E0,0E0,0E0,0E0,0E0,0E0,0E0,0E0,0E0,0E0,0E0,0E0,0E0,0E0,0E0,0E0,0E0,0E0,0E0,0E0,0E0,0E0,0E0,0E0,0E0,0E0,0E0,0E0,0E0,0E0,0E0,0E0,0E0,0E0,0E0,0E0,0E0,0E0,0E0,0E0,0E0,0E0,0E0,0E0,0E0,0E0,0E0],"parents":[2147483647,0,0,1,1,2,2,3,3,4,4,5,5,6,6,7,7,8,8,9,9,10,10,11,11,12,12,13,13,14,14,15,15,16,16,17,17,18,18,19,19,20,20,21,21,22,22,23,23,25,25,26,26,28,28,29,29,31,31,32,32,33,33,34,34,35,35,36,36,37,37,38,38,39,39,40,40,41,41,42,42,45,45,46,46,47,47,48,48,49,49,50,50,51,51,52,52,54,54,56,56,57,57,58,58,59,59,60,60,61,61,62,62,64,64,65,65,66,66,67,67,68,68,69,69,70,70,71,71,72,72,73,73,74,74,75,75,76,76,77,77,78,78,79,79,80,80,82,82,84,84,85,85,86,86,87,87,88,88,89,89,90,90,91,91,92,92,93,93,95,95,96,96,99,99,100,100],"right_children":[2,4,6,8,10,12,14,16,18,20,22,24,26,28,30,32,34,36,38,40,42,44,46,48,-1,50,52,-1,54,56,-1,58,60,62,64,66,68,70,72,74,76,78,80,-1,-1,82,84,86,88,90,92,94,96,-1,98,-1,100,102,104,106,108,110,112,-1,114,116,118,120,122,124,126,128,130,132,134,136,138,140,142,144,146,-1,148,-1,150,152,154,156,158,160,162,164,166,168,-1,170,172,-1,-1,174,176,-1,-1,-1,-1,-1,-1,-1,-1,-1,-1,-1,-1,-1,-1,-1,-1,-1,-1,-1,-1,-1,-1,-1,-1,-1,-1,-1,-1,-1,-1,-1,-1,-1,-1,-1,-1,-1,-1,-1,-1,-1,-1,-1,-1,-1,-1,-1,-1,-1,-1,-1,-1,-1,-1,-1,-1,-1,-1,-1,-1,-1,-1,-1,-1,-1,-1,-1,-1,-1,-1,-1,-1,-1,-1,-1,-1],"split_conditions":[5.94E2,2.44E2,9.983E3,3.3E1,5.498E3,1.1432077E0,-8.8491315E-1,1.4518584E1,4.3140656E-1,5.557885E-1,-1.2997215E0,4.76E2,3.36E2,3.55E2,1.3114E4,2.356196E-1,7.8E1,4.5E1,1.3130803E1,4.1744742E-1,1.45E2,6.032E3,4.62E2,3.77E2,1.0549525E0,6.3613995E1,6.97E2,5.764079E-1,1.6502267E0,1.0369306E-1,8.0165166E-1,3.1E1,2E1,6.9736195E-1,1.6319302E1,9.3E1,3.995198E1,5.5E1,2.2902262E1,-3.0587208E-1,5.210364E-1,1.6381392E0,1.7064519E2,7.172007E-1,8.0165166E-1,1.24E2,3.371819E1,1.0693623E2,-8.1573546E-1,6.35E2,9.7690285E1,7.87E3,8.36E2,5.764079E-1,-1.3996246E0,8.8618803E-1,4.08E2,2.53E2,1.7E1,7E0,3.3E1,2.033635E1,1.36E2,1.23139404E-1,4.67E2,6.37E2,9.329148E0,1.57E3,-4.3462536E-1,1.3433069E0,2.276E3,5.337884E-1,8.360509E1,1.57E3,1.365634E0,3.35E2,1.369771E2,2.85E2,3.493E3,-9.7505385E-1,1.8619098E2,3.1048462E-1,3.95E2,7.1737903E-1,9.768576E-1,1.03756584E2,1.546632E2,8.36E2,7.85E2,1.81E2,6.887E3,6.887E3,3.1E2,7.24E3,8.711497E-1,8.633E3,1.2650554E2,1.3926338E0,1.4207724E0,7.21E2,6.342365E-1,4.12046E-2,6.426244E-2,8.24567E-2,1.11043714E-1,4.528546E-2,8.965643E-2,1.3256164E-1,1.7096576E-1,6.4997174E-2,1.1595192E-1,1.5785979E-1,2.1952009E-1,3.790684E-1,3.0584443E-1,5.966674E-2,2.418007E-1,1.3510709E-1,1.7779581E-1,2.3971982E-1,3.056173E-1,1.52674E-1,2.1712334E-1,2.1661416E-1,2.9483184E-1,3.1088376E-1,2.6415366E-1,4.5333916E-1,3.661728E-1,3.2917604E-1,1.6873914E-1,2.9423696E-1,2.2701387E-1,3.37736E-1,1.8005763E-1,3.5134244E-1,4.885345E-1,3.806494E-1,3.1694576E-1,3.8304314E-1,2.9883924E-1,3.8716742E-1,5.519139E-1,5.573177E-1,4.8134986E-1,3.521162E-1,4.355247E-1,4.918861E-1,4.5094725E-1,6.235325E-1,4.546601E-1,5.9787047E-1,3.7902972E-1,6.8916833E-1,4.3047276E-1,8.077101E-1,5.4823935E-1,6.2009203E-1,7.3168E-1,7.7350277E-1,3.5082287E-1,8.0010825E-1,8.4514916E-1,4.918861E-1,6.1246437E-1,7.895752E-1,6.867952E-1,1.083094E0,9.8345214E-1,5.745665E-1,8.500717E-1,8.8322157E-1,4.8401412E-1,1.083094E0,1.1112355E0,1.0268873E0,9.1423666E-1],"split_indices":[1,1,0,2,0,5,3,4,5,5,3,2,2,2,0,5,1,2,4,5,2,0,1,2,0,4,1,0,5,3,0,1,1,5,4,1,4,2,4,3,5,3,4,0,0,2,4,4,3,1,4,0,1,0,3,0,2,0,2,1,1,4,0,0,0,0,4,0,3,5,0,5,4,0,3,1,4,1,0,3,4,0,1,0,3,4,4,1,1,2,0,0,2,0,0,0,4,0,0,1,3,0,0,0,0,0,0,0,0,0,0,0,0,0,0,0,0,0,0,0,0,0,0,0,0,0,0,0,0,0,0,0,0,0,0,0,0,0,0,0,0,0,0,0,0,0,0,0,0,0,0,0,0,0,0,0,0,0,0,0,0,0,0,0,0,0,0,0,0,0,0,0,0,0,0,0,0],"split_type":[0,0,0,0,0,0,0,0,0,0,0,0,0,0,0,0,0,0,0,0,0,0,0,0,0,0,0,0,0,0,0,0,0,0,0,0,0,0,0,0,0,0,0,0,0,0,0,0,0,0,0,0,0,0,0,0,0,0,0,0,0,0,0,0,0,0,0,0,0,0,0,0,0,0,0,0,0,0,0,0,0,0,0,0,0,0,0,0,0,0,0,0,0,0,0,0,0,0,0,0,0,0,0,0,0,0,0,0,0,0,0,0,0,0,0,0,0,0,0,0,0,0,0,0,0,0,0,0,0,0,0,0,0,0,0,0,0,0,0,0,0,0,0,0,0,0,0,0,0,0,0,0,0,0,0,0,0,0,0,0,0,0,0,0,0,0,0,0,0,0,0,0,0,0,0,0,0],"sum_hessian":[1.0890998E6,4.1965375E5,6.69446E5,1.4442497E5,2.7522878E5,5.37767E5,1.3167895E5,8.01329E4,6.4292074E4,1.9915475E5,7.607404E4,2.950663E5,2.427007E5,4.9940934E4,8.1738016E4,6.592467E4,1.4208221E4,2.94144E4,3.487767E4,4.44222E4,1.5473255E5,1.2505114E4,6.3568926E4,2.8304284E5,1.202348E4,8.0049125E4,1.6265156E5,3.5937212E3,4.634721E4,7.479295E4,6.9450605E3,2.0307625E4,4.561705E4,9.453647E3,4.754573E3,7.236593E3,2.2177809E4,1.0035121E4,2.4842553E4,1.0920912E4,3.3501285E4,2.2363535E4,1.3236902E5,5.5600537E3,6.9450605E3,9.07277E3,5.4496156E4,1.558248E5,1.27218055E5,3.014102E4,4.990811E4,3.1323238E4,1.3132833E5,3.5937212E3,4.2753492E4,1.6967363E4,5.7825594E4,8.462045E3,1.1845579E4,9.989138E3,3.5627914E4,1.2715985E3,8.1820493E3,1.8071194E2,4.5738613E3,2.6381907E3,4.5984023E3,1.8339982E4,3.8378257E3,7.1893813E3,2.8457397E3,1.4221226E4,1.0621327E4,2.5378E3,8.383112E3,1.7922121E4,1.5579164E4,1.3098572E4,9.264962E3,1.15660305E5,1.6708705E4,2.0727441E3,7.0000254E3,1.6678883E4,3.7817273E4,5.5407195E4,1.004176E5,5.7470703E4,6.974735E4,7.803188E3,2.2337832E4,1.880178E4,3.110633E4,2.3122805E4,8.200434E3,2.1401705E4,1.09926625E5,2.0949264E4,2.1804227E4,2.6013361E4,3.1812232E4,4.870213E3,3.5918323E3,5.6467744E3,6.1988047E3,1.01274994E3,8.976388E3,9.129088E3,2.6498826E4,5.1858795E2,7.5301056E2,2.415915E3,5.7661343E3,1.5591332E3,3.014728E3,1.2940361E2,2.508787E3,1.6281027E3,2.9702996E3,6.398144E3,1.1941838E4,9.273222E2,2.9105034E3,5.303031E3,1.8863507E3,2.0826643E3,7.6307526E2,6.640768E3,7.580457E3,9.567585E3,1.0537421E3,9.437503E2,1.5940497E3,8.0202075E3,3.6290497E2,5.3748076E3,1.2547314E4,1.1900456E4,3.678708E3,4.292163E3,8.806409E3,2.7517227E3,6.5132393E3,3.5861004E4,7.9799305E4,6.9723164E3,9.73639E3,2.6191362E3,4.3808887E3,3.3417715E4,4.3995596E3,5.078037E4,4.6268223E3,9.4651195E4,5.7664033E3,5.4218945E4,3.2517576E3,3.644055E4,3.3306797E4,6.466292E3,1.3368959E3,6.918368E3,1.5419463E4,2.6191362E3,1.6182643E4,2.0912967E4,1.0193363E4,1.2673248E4,1.0449558E4,1.3593037E4,7.808668E3,1.0739039E5,2.536234E3,1.2673248E4,1.3340113E4,2.2781094E4,9.031139E3],"tree_param":{"num_deleted":"0","num_feature":"6","num_nodes":"177","size_leaf_vector":"1"}},{"base_weights":[6.4132385E0,3.9334025E0,7.962991E0,2.0574608E0,4.9134483E0,7.303023E0,1.0653288E1,1.4020836E0,2.8685155E0,4.4421377E0,6.14467E0,6.7346215E0,7.993151E0,1.2446404E1,9.557433E0,1.2153578E0,2.2596278E0,2.4226427E0,3.2427528E0,3.7349033E0,4.645631E0,7.387652E0,5.899398E0,6.5870748E0,1.0197785E0,7.1019216E0,8.431885E0,5.571693E-1,1.2979115E1,9.72509E0,7.749159E-1,7.735188E-1,1.4091338E0,1.8201424E0,3.126705E0,1.8310951E0,2.6156979E0,2.4694989E0,3.5544658E0,3.02791E0,3.9651258E0,3.8785846E0,4.7752094E0,6.932769E-1,7.749159E-1,4.166586E0,6.188231E0,6.2178917E0,7.0377584E0,7.710967E0,6.7332726E0,9.613428E0,8.149464E0,5.571693E-1,1.3601383E1,8.566424E-1,1.0064719E1,5.1281404E-1,9.5448357E-1,1.0354868E0,1.6570373E0,9.37379E-1,1.9552499E0,1.1864727E-1,3.2009828E0,2.2600257E0,1.5817246E0,2.7526252E0,1.9598286E0,2.3012161E0,2.888581E0,2.5775294E0,3.7606747E0,2.4434109E0,3.2032638E0,4.3325944E0,3.541376E0,3.167565E0,4.8825583E0,4.9036126E0,3.8867364E0,3.001577E-1,4.5094914E0,6.934607E-1,5.8575306E0,5.618172E0,6.5492587E0,7.672462E0,6.514535E0,6.7787695E0,8.035807E0,5.759065E0,7.322701E0,1.0035453E1,8.4209913E-1,6.531321E0,8.464683E0,1.3462068E0,1.3734077E0,1.0610177E1,9.618011E0,4.189552E-2,6.331208E-2,8.1129774E-2,1.0817959E-1,8.333111E-2,1.2782729E-1,1.4170681E-1,1.7491165E-1,6.322061E-2,1.13290824E-1,1.5340863E-1,2.129211E-1,3.663796E-1,2.9568055E-1,5.74286E-2,2.343003E-1,1.4217494E-1,1.8366228E-1,2.32688E-1,2.9806253E-1,1.4849421E-1,2.1064834E-1,2.1027687E-1,2.849617E-1,3.129728E-1,2.719069E-1,2.7747414E-1,1.8677084E-1,3.864592E-1,1.694234E-1,2.8434455E-1,2.1977022E-1,3.5638818E-1,2.922686E-1,3.409637E-1,4.725553E-1,4.0013233E-1,3.3961213E-1,3.7116453E-1,2.9003426E-1,3.7900004E-1,5.336423E-1,5.409869E-1,4.675749E-1,3.4241983E-1,4.2149374E-1,4.754567E-1,4.359386E-1,6.050028E-1,4.396542E-1,5.7963675E-1,3.664439E-1,6.6949075E-1,4.1650197E-1,7.814607E-1,5.299374E-1,5.9978503E-1,7.079475E-1,7.4770427E-1,3.3906755E-1,7.8837985E-1,8.30687E-1,4.754567E-1,5.9206724E-1,7.656094E-1,6.638928E-1,1.0469825E0,9.506605E-1,5.560416E-1,8.217233E-1,8.554124E-1,4.678462E-1,1.0469825E0,1.0741862E0,9.926531E-1,8.837509E-1],"categories":[],"categories_nodes":[],"categories_segments":[],"categories_sizes":[],"default_left":[0,0,0,0,0,0,0,0,0,0,0,0,0,0,0,0,0,0,0,0,0,0,0,0,0,0,0,0,0,0,0,0,0,0,0,0,0,0,0,0,0,0,0,0,0,0,0,0,0,0,0,0,0,0,0,0,0,0,0,0,0,0,0,0,0,0,0,0,0,0,0,0,0,0,0,0,0,0,0,0,0,0,0,0,0,0,0,0,0,0,0,0,0,0,0,0,0,0,0,0,0,0,0,0,0,0,0,0,0,0,0,0,0,0,0,0,0,0,0,0,0,0,0,0,0,0,0,0,0,0,0,0,0,0,0,0,0,0,0,0,0,0,0,0,0,0,0,0,0,0,0,0,0,0,0,0,0,0,0,0,0,0,0,0,0,0,0,0,0,0,0,0,0,0,0,0,0],"id":6,"left_children":[1,3,5,7,9,11,13,15,17,19,21,23,25,27,29,31,33,35,37,39,41,43,45,47,-1,49,51,-1,53,55,-1,57,59,61,63,65,67,69,71,73,75,77,79,-1,-1,81,83,85,87,89,91,93,95,-1,97,-1,99,101,103,105,107,109,111,-1,113,115,117,119,121,123,125,127,129,131,133,135,137,139,141,143,145,-1,147,-1,149,151,153,155,157,159,161,163,165,167,-1,169,171,-1,-1,173,175,-1,-1,-1,-1,-1,-1,-1,-1,-1,-1,-1,-1,-1,-1,-1,-1,-1,-1,-1,-1,-1,-1,-1,-1,-1,-1,-1,-1,-1,-1,-1,-1,-1,-1,-1,-1,-1,-1,-1,-1,-1,-1,-1,-1,-1,-1,-1,-1,-1,-1,-1,-1,-1,-1,-1,-1,-1,-1,-1,-1,-1,-1,-1,-1,-1,-1,-1,-1,-1,-1,-1,-1,-1,-1,-1,-1],"loss_changes":[3.900868E6,7.17656E5,1.108856E6,7.116431E4,1.486655E5,1.9657E5,2.41451E5,1.18285625E4,9.924844E3,2.65875E4,2.146225E4,1.40329E5,8.8364E4,1.70653E5,2.29065E4,5.1882734E3,4.9901484E3,3.0723594E3,7.7723438E3,6.665E3,1.420725E4,1.72125E3,2.9545375E4,4.3723E4,0E0,1.6586E4,5.0397E4,0E0,1.99367E5,2.72315E4,0E0,8.6111523E2,3.8888984E3,1.01838086E3,5.9283984E2,6.791328E2,1.7969219E3,6.014961E2,4.5954375E3,9.808906E2,4.7729375E3,1.4770875E4,1.3945E4,0E0,0E0,3.2985625E3,1.2373375E4,2.86695E4,3.92575E4,8.326625E3,2.657475E4,1.446125E4,6.2291E4,0E0,2.815E2,0E0,1.2862E4,7.542737E1,1.7961621E2,8.067344E2,5.2725E2,5.200476E1,5.1825E2,0E0,4.0607422E2,3.1379297E2,1.393877E2,1.5922812E3,2.0979102E2,6.7359766E2,4.175586E1,5.154258E2,4.0447188E3,1.7635742E2,7.167422E2,5.9675E3,8.8346875E2,1.6969688E3,4.16625E3,1.22865E4,2.2723906E3,0E0,1.288125E2,0E0,9.77625E3,1.786375E4,3.2304E4,1.79295E4,1.883775E4,1.7119938E4,6.3275E2,2.71725E3,6.41975E3,4.6645E3,0E0,3.253125E4,3.45515E4,0E0,0E0,1.2475E2,6.883E3,0E0,0E0,0E0,0E0,0E0,0E0,0E0,0E0,0E0,0E0,0E0,0E0,0E0,0E0,0E0,0E0,0E0,0E0,0E0,0E0,0E0,0E0,0E0,0E0,0E0,0E0,0E0,0E0,0E0,0E0,0E0,0E0,0E0,0E0,0E0,0E0,0E0,0E0,0E0,0E0,0E0,0E0,0E0,0E0,0E0,0E0,0E0,0E0,0E0,0E0,0E0,0E0,0E0,0E0,0E0,0E0,0E0,0E0,0E0,0E0,0E0,0E0,0E0,0E0,0E0,0E0,0E0,0E0,0E0,0E0,0E0,0E0,0E0,0E0,0E0,0E0],"parents":[2147483647,0,0,1,1,2,2,3,3,4,4,5,5,6,6,7,7,8,8,9,9,10,10,11,11,12,12,13,13,14,14,15,15,16,16,17,17,18,18,19,19,20,20,21,21,22,22,23,23,25,25,26,26,28,28,29,29,31,31,32,32,33,33,34,34,35,35,36,36,37,37,38,38,39,39,40,40,41,41,42,42,45,45,46,46,47,47,48,48,49,49,50,50,51,51,52,52,54,54,56,56,57,57,58,58,59,59,60,60,61,61,62,62,64,64,65,65,66,66,67,67,68,68,69,69,70,70,71,71,72,72,73,73,74,74,75,75,76,76,77,77,78,78,79,79,80,80,82,82,84,84,85,85,86,86,87,87,88,88,89,89,90,90,91,91,92,92,93,93,95,95,96,96,99,99,100,100],"right_children":[2,4,6,8,10,12,14,16,18,20,22,24,26,28,30,32,34,36,38,40,42,44,46,48,-1,50,52,-1,54,56,-1,58,60,62,64,66,68,70,72,74,76,78,80,-1,-1,82,84,86,88,90,92,94,96,-1,98,-1,100,102,104,106,108,110,112,-1,114,116,118,120,122,124,126,128,130,132,134,136,138,140,142,144,146,-1,148,-1,150,152,154,156,158,160,162,164,166,168,-1,170,172,-1,-1,174,176,-1,-1,-1,-1,-1,-1,-1,-1,-1,-1,-1,-1,-1,-1,-1,-1,-1,-1,-1,-1,-1,-1,-1,-1,-1,-1,-1,-1,-1,-1,-1,-1,-1,-1,-1,-1,-1,-1,-1,-1,-1,-1,-1,-1,-1,-1,-1,-1,-1,-1,-1,-1,-1,-1,-1,-1,-1,-1,-1,-1,-1,-1,-1,-1,-1,-1,-1,-1,-1,-1,-1,-1,-1,-1,-1,-1],"split_conditions":[5.94E2,2.44E2,9.983E3,3.3E1,5.498E3,1.1432077E0,-8.8491315E-1,1.4518584E1,4.3140656E-1,5.557885E-1,-1.2997215E0,4.76E2,3.36E2,3.55E2,1.3114E4,2.356196E-1,7.8E1,4.5E1,1.3130803E1,4.1744742E-1,1.45E2,6.032E3,4.62E2,3.77E2,1.0197785E0,6.3613995E1,6.97E2,5.571693E-1,1.6502267E0,1.0369306E-1,7.749159E-1,3.1E1,3.1E1,6.9736195E-1,1.6319302E1,9.3E1,3.995198E1,5.5E1,1.428E3,-3.0587208E-1,5.210364E-1,1.6381392E0,1.7064519E2,6.932769E-1,7.749159E-1,1.24E2,3.371819E1,1.0693623E2,-8.1573546E-1,6.35E2,9.7690285E1,7.87E3,8.36E2,5.571693E-1,-1.3996246E0,8.566424E-1,4.08E2,2.53E2,1.7E1,2E1,4.0722084E-1,2.033635E1,1.36E2,1.1864727E-1,4.67E2,6.37E2,4.1E1,1.57E3,-4.3462536E-1,1.3433069E0,-1.9487703E0,1.063E3,5.3908348E1,1.57E3,2.449E3,3.35E2,-1.803141E0,2.85E2,3.493E3,-9.7505385E-1,1.8619098E2,3.001577E-1,3.95E2,6.934607E-1,9.768576E-1,1.03756584E2,1.546632E2,8.36E2,7.85E2,1.81E2,7.24E3,6.887E3,3.1E2,7.24E3,8.4209913E-1,8.633E3,1.2650554E2,1.3462068E0,1.3734077E0,7.21E2,6.342365E-1,4.189552E-2,6.331208E-2,8.1129774E-2,1.0817959E-1,8.333111E-2,1.2782729E-1,1.4170681E-1,1.7491165E-1,6.322061E-2,1.13290824E-1,1.5340863E-1,2.129211E-1,3.663796E-1,2.9568055E-1,5.74286E-2,2.343003E-1,1.4217494E-1,1.8366228E-1,2.32688E-1,2.9806253E-1,1.4849421E-1,2.1064834E-1,2.1027687E-1,2.849617E-1,3.129728E-1,2.719069E-1,2.7747414E-1,1.8677084E-1,3.864592E-1,1.694234E-1,2.8434455E-1,2.1977022E-1,3.5638818E-1,2.922686E-1,3.409637E-1,4.725553E-1,4.0013233E-1,3.3961213E-1,3.7116453E-1,2.9003426E-1,3.7900004E-1,5.336423E-1,5.409869E-1,4.675749E-1,3.4241983E-1,4.2149374E-1,4.754567E-1,4.359386E-1,6.050028E-1,4.396542E-1,5.7963675E-1,3.664439E-1,6.6949075E-1,4.1650197E-1,7.814607E-1,5.299374E-1,5.9978503E-1,7.079475E-1,7.4770427E-1,3.3906755E-1,7.8837985E-1,8.30687E-1,4.754567E-1,5.9206724E-1,7.656094E-1,6.638928E-1,1.0469825E0,9.506605E-1,5.560416E-1,8.217233E-1,8.554124E-1,4.678462E-1,1.0469825E0,1.0741862E0,9.926531E-1,8.837509E-1],"split_indices":[1,1,0,2,0,5,3,4,5,5,3,2,2,2,0,5,1,2,4,5,2,0,1,2,0,4,1,0,5,3,0,1,1,5,4,1,4,2,0,3,5,3,4,0,0,2,4,4,3,1,4,0,1,0,3,0,2,0,2,1,5,4,0,0,0,0,2,0,3,5,3,0,4,0,0,1,3,1,0,3,4,0,1,0,3,4,4,1,1,2,0,0,2,0,0,0,4,0,0,1,3,0,0,0,0,0,0,0,0,0,0,0,0,0,0,0,0,0,0,0,0,0,0,0,0,0,0,0,0,0,0,0,0,0,0,0,0,0,0,0,0,0,0,0,0,0,0,0,0,0,0,0,0,0,0,0,0,0,0,0,0,0,0,0,0,0,0,0,0,0,0,0,0,0,0,0,0],"split_type":[0,0,0,0,0,0,0,0,0,0,0,0,0,0,0,0,0,0,0,0,0,0,0,0,0,0,0,0,0,0,0,0,0,0,0,0,0,0,0,0,0,0,0,0,0,0,0,0,0,0,0,0,0,0,0,0,0,0,0,0,0,0,0,0,0,0,0,0,0,0,0,0,0,0,0,0,0,0,0,0,0,0,0,0,0,0,0,0,0,0,0,0,0,0,0,0,0,0,0,0,0,0,0,0,0,0,0,0,0,0,0,0,0,0,0,0,0,0,0,0,0,0,0,0,0,0,0,0,0,0,0,0,0,0,0,0,0,0,0,0,0,0,0,0,0,0,0,0,0,0,0,0,0,0,0,0,0,0,0,0,0,0,0,0,0,0,0,0,0,0,0,0,0,0,0,0,0],"sum_hessian":[1.015061E6,3.903894E5,6.2467156E5,1.3396853E5,2.5642089E5,5.0162353E5,1.2304803E5,7.4103695E4,5.9864836E4,1.8544534E5,7.097555E4,2.750845E5,2.2653902E5,4.6667598E4,7.638044E4,6.086478E4,1.3238912E4,2.7333473E4,3.2531365E4,4.145128E4,1.4399406E5,1.1685635E4,5.9289914E4,2.638491E5,1.12354E4,7.474482E4,1.517942E5,3.3583088E3,4.330929E4,6.9890516E4,6.4899185E3,1.8572719E4,4.2292062E4,8.79548E3,4.4434316E3,6.74085E3,2.0592623E4,9.3581E3,2.3173266E4,1.0196447E4,3.1254836E4,2.0825387E4,1.2316867E5,5.195717E3,6.4899185E3,8.477917E3,5.0811996E4,1.4505916E5,1.18789945E5,2.8165508E4,4.657931E4,2.9270219E4,1.22523984E5,3.3583088E3,3.995098E4,1.5855199E4,5.4035316E4,7.633992E3,1.0938727E4,1.6886213E4,2.5405852E4,1.1783506E3,7.61713E3,1.6942528E2,4.2740063E3,2.4604968E3,4.2803535E3,1.7020723E4,3.5718997E3,6.698618E3,2.6594817E3,4.0496438E3,1.9123621E4,2.3696736E3,7.826773E3,1.6721447E4,1.4533388E4,1.2199646E4,8.625739E3,1.0760212E5,1.556655E4,1.9367587E3,6.5411587E3,1.5585643E4,3.5226355E4,5.164261E4,9.341655E4,5.3661855E4,6.512809E4,7.292041E3,2.0873467E4,1.7568996E4,2.9010312E4,2.160723E4,7.662989E3,1.998526E4,1.0253873E5,1.9576033E4,2.0374947E4,2.4308291E4,2.9727025E4,4.3375786E3,3.2964133E3,5.1888477E3,5.749879E3,9.238576E3,7.6476357E3,7.079864E3,1.8325988E4,4.817829E2,6.965676E2,2.2462373E3,5.3708926E3,1.4571572E3,2.816849E3,1.2145686E2,2.3390398E3,2.6579927E3,1.6223608E3,5.9553516E3,1.1065371E4,8.6151685E2,2.7103828E3,4.935646E3,1.762972E3,1.0662223E3,1.5932594E3,3.1558477E3,8.937961E2,1.8202541E4,9.2108014E2,8.8216455E2,1.487509E3,3.404161E3,4.4226123E3,5.0038423E3,1.1717605E4,3.4652734E3,1.1068114E4,4.0016863E3,8.197961E3,2.5408064E3,6.0849336E3,3.3378004E4,7.422412E4,6.4783813E3,9.088169E3,2.4476326E3,4.093526E3,3.1116506E4,4.1098486E3,4.7319613E4,4.3229976E3,8.803278E4,5.3837666E3,5.0623086E4,3.0387683E3,3.403214E4,3.109595E4,6.0425386E3,1.2495024E3,1.341662E4,7.456847E3,2.4476326E3,1.5121364E4,1.9485021E4,9.525291E3,1.184257E4,9.764659E3,1.2688354E4,7.2969062E3,1.0016856E5,2.370167E3,1.184257E4,1.2465721E4,2.1287793E4,8.439232E3],"tree_param":{"num_deleted":"0","num_feature":"6","num_nodes":"177","size_leaf_vector":"1"}},{"base_weights":[6.2166276E0,3.820313E0,7.7096725E0,2.0040786E0,4.765245E0,7.073477E0,1.0298198E1,1.3701416E0,2.7831945E0,4.310809E0,5.9498873E0,6.52701E0,7.736091E0,1.2031492E1,9.238878E0,1.1896764E0,2.1913247E0,2.356256E0,3.1400254E0,3.616465E0,4.5111356E0,4.094588E0,6.1030693E0,6.3847322E0,9.857764E-1,6.870531E0,8.162449E0,5.3857046E-1,1.2546454E1,9.400943E0,7.4907035E-1,7.6415414E-1,1.3739514E0,1.7679151E0,3.0226524E0,1.8581651E0,2.5793595E0,2.392899E0,3.44091E0,2.9302783E0,3.8400526E0,3.763759E0,4.637479E0,4.353243E0,3.043451E-1,7.0069366E0,5.7885494E0,5.458291E0,6.5503645E0,7.4540052E0,6.516911E0,9.300009E0,7.8885465E0,5.3857046E-1,1.3147995E1,8.2808155E-1,9.729245E0,5.2104497E-1,9.383241E-1,1.0120741E0,1.6130881E0,9.146056E-1,1.8978391E0,1.1428224E-1,3.0946336E0,1.2410218E0,2.0054657E0,2.73682E0,1.9030743E0,2.231734E0,2.7924874E0,3.819236E0,2.929834E0,2.3632536E0,3.1003823E0,4.1952853E0,3.4302065E0,3.073329E0,4.7388415E0,4.763067E0,3.7696576E0,4.5957285E-1,4.0301952E-1,7.4907035E-1,6.7030174E-1,5.4062676E0,6.578977E0,5.9709663E0,4.512567E0,7.3484273E0,6.43314E0,6.55264E0,7.7680464E0,5.567272E0,7.0924816E0,1.0120741E0,8.745296E0,8.32399E0,6.6910934E0,1.3013275E0,1.3276218E0,1.0256489E1,9.297396E0,4.26577E-2,6.294923E-2,8.0024295E-2,1.0539867E-1,8.164732E-2,1.2455823E-1,1.3791472E-1,1.7028184E-1,6.1430074E-2,1.10658586E-1,1.4905946E-1,2.0655738E-1,3.541103E-1,2.8585577E-1,-0E0,1.2448519E-1,2.1300612E-1,1.628928E-1,2.180027E-1,3.117591E-1,1.4445896E-1,2.0438564E-1,2.0415781E-1,2.7541775E-1,2.906538E-1,2.4606481E-1,4.253944E-1,3.4301445E-1,3.0762002E-1,1.5845618E-1,2.4727467E-1,1.5574323E-1,3.4577873E-1,2.8232417E-1,3.309278E-1,4.5711976E-1,3.5668734E-1,2.9770193E-1,3.5971263E-1,2.8154966E-1,3.7121567E-1,5.159835E-1,5.251232E-1,4.5431185E-1,3.330729E-1,4.079453E-1,5.770394E-1,4.1058978E-1,1.648697E-1,6.682815E-1,6.496193E-1,4.406448E-1,2.6268768E-1,4.7533914E-1,5.9088016E-1,8.42546E-1,5.688834E-1,6.750247E-1,7.227649E-1,3.277001E-1,7.471293E-1,7.8996384E-1,4.5957285E-1,5.723507E-1,7.422425E-1,6.417534E-1,8.28113E-1,9.1255134E-1,8.466155E-1,7.387798E-1,4.928921E-1,8.4286433E-1,1.0120741E0,1.0383713E0,9.5955974E-1,8.5428077E-1],"categories":[],"categories_nodes":[],"categories_segments":[],"categories_sizes":[],"default_left":[0,0,0,0,0,0,0,0,0,0,0,0,0,0,0,0,0,0,0,0,0,0,0,0,0,0,0,0,0,0,0,0,0,0,0,0,0,0,0,0,0,0,0,0,0,0,0,0,0,0,0,0,0,0,0,0,0,0,0,0,0,0,0,0,0,0,0,0,0,0,0,0,0,0,0,0,0,0,0,0,0,0,0,0,0,0,0,0,0,0,0,0,0,0,0,0,0,0,0,0,0,0,0,0,0,0,0,0,0,0,0,0,0,0,0,0,0,0,0,0,0,0,0,0,0,0,0,0,0,0,0,0,0,0,0,0,0,0,0,0,0,0,0,0,0,0,0,0,0,0,0,0,0,0,0,0,0,0,0,0,0,0,0,0,0,0,0,0,0,0,0,0,0,0,0,0,0,0,0],"id":7,"left_children":[1,3,5,7,9,11,13,15,17,19,21,23,25,27,29,31,33,35,37,39,41,43,45,47,-1,49,51,-1,53,55,-1,57,59,61,63,65,67,69,71,73,75,77,79,81,-1,83,85,87,89,91,93,95,97,-1,99,-1,101,103,105,107,109,111,113,-1,115,117,119,121,123,125,127,129,131,133,135,137,139,141,143,145,147,-1,-1,-1,-1,149,151,153,155,157,159,161,163,165,167,-1,169,171,173,-1,-1,175,177,-1,-1,-1,-1,-1,-1,-1,-1,-1,-1,-1,-1,-1,-1,-1,-1,-1,-1,-1,-1,-1,-1,-1,-1,-1,-1,-1,-1,-1,-1,-1,-1,-1,-1,-1,-1,-1,-1,-1,-1,-1,-1,-1,-1,-1,-1,-1,-1,-1,-1,-1,-1,-1,-1,-1,-1,-1,-1,-1,-1,-1,-1,-1,-1,-1,-1,-1,-1,-1,-1,-1,-1,-1,-1,-1,-1],"loss_changes":[3.384496E6,6.231805E5,9.59596E5,6.1340812E4,1.28468E5,1.69222E5,2.10799E5,1.0120375E4,8.430875E3,2.391825E4,1.869225E4,1.2129E5,7.7827E4,1.49001E5,1.99825E4,4.384453E3,4.2892617E3,2.7732656E3,6.7567188E3,5.8547812E3,1.25495E4,1.2880703E3,1.721875E4,3.758E4,0E0,1.42125E4,4.3891E4,0E0,1.74074E5,2.3757E4,0E0,7.048213E2,3.3643828E3,8.774922E2,5.161367E2,6.808906E2,1.8145938E3,5.0554297E2,4.102922E3,8.562969E2,4.15425E3,1.29616875E4,1.23855E4,2.1242969E2,0E0,2.12725E3,1.3559125E4,1.7959625E4,1.9332E4,7.256375E3,2.3597625E4,1.223175E4,5.9329E4,0E0,2.095E2,0E0,1.1206E4,6.2141724E1,1.384082E2,6.9163574E2,4.6190625E2,4.515808E1,4.457832E2,0E0,3.469414E2,5.6157227E0,2.564961E2,2.9509766E3,1.7678125E2,5.6650586E2,3.3279297E1,2.0080781E3,1.7629609E3,1.5125488E2,6.511406E2,5.1022812E3,7.635625E2,1.4601172E3,3.363125E3,1.0625E4,1.8842031E3,0E0,0E0,0E0,0E0,1.43693125E4,7.473375E3,1.9737375E4,5.875375E3,4.120525E4,4.27725E4,1.494075E4,5.49E2,2.3625938E3,5.839875E3,0E0,2.64625E3,1.09215E4,9.30865E4,0E0,0E0,8.225E1,5.98775E3,0E0,0E0,0E0,0E0,0E0,0E0,0E0,0E0,0E0,0E0,0E0,0E0,0E0,0E0,0E0,0E0,0E0,0E0,0E0,0E0,0E0,0E0,0E0,0E0,0E0,0E0,0E0,0E0,0E0,0E0,0E0,0E0,0E0,0E0,0E0,0E0,0E0,0E0,0E0,0E0,0E0,0E0,0E0,0E0,0E0,0E0,0E0,0E0,0E0,0E0,0E0,0E0,0E0,0E0,0E0,0E0,0E0,0E0,0E0,0E0,0E0,0E0,0E0,0E0,0E0,0E0,0E0,0E0,0E0,0E0,0E0,0E0,0E0,0E0,0E0,0E0],"parents":[2147483647,0,0,1,1,2,2,3,3,4,4,5,5,6,6,7,7,8,8,9,9,10,10,11,11,12,12,13,13,14,14,15,15,16,16,17,17,18,18,19,19,20,20,21,21,22,22,23,23,25,25,26,26,28,28,29,29,31,31,32,32,33,33,34,34,35,35,36,36,37,37,38,38,39,39,40,40,41,41,42,42,43,43,45,45,46,46,47,47,48,48,49,49,50,50,51,51,52,52,54,54,56,56,57,57,58,58,59,59,60,60,61,61,62,62,64,64,65,65,66,66,67,67,68,68,69,69,70,70,71,71,72,72,73,73,74,74,75,75,76,76,77,77,78,78,79,79,80,80,85,85,86,86,87,87,88,88,89,89,90,90,91,91,92,92,93,93,94,94,96,96,97,97,98,98,101,101,102,102],"right_children":[2,4,6,8,10,12,14,16,18,20,22,24,26,28,30,32,34,36,38,40,42,44,46,48,-1,50,52,-1,54,56,-1,58,60,62,64,66,68,70,72,74,76,78,80,82,-1,84,86,88,90,92,94,96,98,-1,100,-1,102,104,106,108,110,112,114,-1,116,118,120,122,124,126,128,130,132,134,136,138,140,142,144,146,148,-1,-1,-1,-1,150,152,154,156,158,160,162,164,166,168,-1,170,172,174,-1,-1,176,178,-1,-1,-1,-1,-1,-1,-1,-1,-1,-1,-1,-1,-1,-1,-1,-1,-1,-1,-1,-1,-1,-1,-1,-1,-1,-1,-1,-1,-1,-1,-1,-1,-1,-1,-1,-1,-1,-1,-1,-1,-1,-1,-1,-1,-1,-1,-1,-1,-1,-1,-1,-1,-1,-1,-1,-1,-1,-1,-1,-1,-1,-1,-1,-1,-1,-1,-1,-1,-1,-1,-1,-1,-1,-1,-1,-1],"split_conditions":[5.94E2,2.44E2,9.983E3,3.3E1,5.498E3,1.1432077E0,-8.8491315E-1,1.4518584E1,4.3140656E-1,5.557885E-1,4.44E2,4.76E2,3.36E2,3.55E2,1.3114E4,2.356196E-1,7.8E1,1.4850083E1,1.3130803E1,4.1744742E-1,1.45E2,4.23E2,-1.1395342E0,2.92E2,9.857764E-1,6.3613995E1,7.24E3,5.3857046E-1,1.6502267E0,1.0369306E-1,7.4907035E-1,3.2E1,3.1E1,6.9736195E-1,1.6319302E1,9.501097E0,3.995198E1,5.5E1,2.2902262E1,-3.0587208E-1,5.210364E-1,1.6381392E0,1.7064519E2,3.95E2,3.043451E-1,4.62E2,1.1098783E0,5.710774E-1,6.6E2,6.35E2,9.7690285E1,6.97E2,6.84883E-1,5.3857046E-1,-1.3996246E0,8.2808155E-1,4.08E2,2.53E2,1.7E1,2E1,4.0722084E-1,2.033635E1,1.36E2,1.1428224E-1,4.67E2,9.3E1,1.6E2,1.57E3,-4.3462536E-1,1.3433069E0,2.276E3,5.337884E-1,8.360509E1,1.58E2,2.449E3,3.35E2,1.369771E2,2.85E2,3.493E3,-9.7505385E-1,1.8619098E2,4.5957285E-1,4.0301952E-1,7.4907035E-1,6.7030174E-1,1.8837626E-1,-7.4590826E-1,6.192E3,5.784E3,5.04E3,3.55E2,1.81E2,6.887E3,6.887E3,3.1E2,1.0120741E0,6.192E3,1.2650554E2,1.1856248E0,1.3013275E0,1.3276218E0,7.21E2,6.342365E-1,4.26577E-2,6.294923E-2,8.0024295E-2,1.0539867E-1,8.164732E-2,1.2455823E-1,1.3791472E-1,1.7028184E-1,6.1430074E-2,1.10658586E-1,1.4905946E-1,2.0655738E-1,3.541103E-1,2.8585577E-1,-0E0,1.2448519E-1,2.1300612E-1,1.628928E-1,2.180027E-1,3.117591E-1,1.4445896E-1,2.0438564E-1,2.0415781E-1,2.7541775E-1,2.906538E-1,2.4606481E-1,4.253944E-1,3.4301445E-1,3.0762002E-1,1.5845618E-1,2.4727467E-1,1.5574323E-1,3.4577873E-1,2.8232417E-1,3.309278E-1,4.5711976E-1,3.5668734E-1,2.9770193E-1,3.5971263E-1,2.8154966E-1,3.7121567E-1,5.159835E-1,5.251232E-1,4.5431185E-1,3.330729E-1,4.079453E-1,5.770394E-1,4.1058978E-1,1.648697E-1,6.682815E-1,6.496193E-1,4.406448E-1,2.6268768E-1,4.7533914E-1,5.9088016E-1,8.42546E-1,5.688834E-1,6.750247E-1,7.227649E-1,3.277001E-1,7.471293E-1,7.8996384E-1,4.5957285E-1,5.723507E-1,7.422425E-1,6.417534E-1,8.28113E-1,9.1255134E-1,8.466155E-1,7.387798E-1,4.928921E-1,8.4286433E-1,1.0120741E0,1.0383713E0,9.5955974E-1,8.5428077E-1],"split_indices":[1,1,0,2,0,5,3,4,5,5,1,2,2,2,0,5,1,4,4,5,2,1,3,2,0,4,0,0,5,3,0,1,1,5,4,4,4,2,4,3,5,3,4,1,0,1,5,3,1,1,4,1,3,0,3,0,2,0,2,1,5,4,0,0,0,1,1,0,3,5,0,5,4,2,0,1,4,1,0,3,4,0,0,0,0,3,3,0,0,0,2,2,0,0,2,0,0,4,3,0,0,1,3,0,0,0,0,0,0,0,0,0,0,0,0,0,0,0,0,0,0,0,0,0,0,0,0,0,0,0,0,0,0,0,0,0,0,0,0,0,0,0,0,0,0,0,0,0,0,0,0,0,0,0,0,0,0,0,0,0,0,0,0,0,0,0,0,0,0,0,0,0,0,0,0,0,0,0,0],"split_type":[0,0,0,0,0,0,0,0,0,0,0,0,0,0,0,0,0,0,0,0,0,0,0,0,0,0,0,0,0,0,0,0,0,0,0,0,0,0,0,0,0,0,0,0,0,0,0,0,0,0,0,0,0,0,0,0,0,0,0,0,0,0,0,0,0,0,0,0,0,0,0,0,0,0,0,0,0,0,0,0,0,0,0,0,0,0,0,0,0,0,0,0,0,0,0,0,0,0,0,0,0,0,0,0,0,0,0,0,0,0,0,0,0,0,0,0,0,0,0,0,0,0,0,0,0,0,0,0,0,0,0,0,0,0,0,0,0,0,0,0,0,0,0,0,0,0,0,0,0,0,0,0,0,0,0,0,0,0,0,0,0,0,0,0,0,0,0,0,0,0,0,0,0,0,0,0,0,0,0],"sum_hessian":[9.4600844E5,3.6315703E5,5.828514E5,1.2428505E5,2.38872E5,4.6786847E5,1.1498293E5,6.853572E4,5.574933E4,1.7265395E5,6.621805E4,2.5642086E5,2.1144762E5,4.360886E4,7.137407E4,5.619975E4,1.2335968E4,2.539752E4,3.0351809E4,3.86746E4,1.3397934E5,5.057383E3,6.1160664E4,2.4592188E5,1.0498984E4,6.979514E4,1.4165247E5,3.138333E3,4.0470523E4,6.5309457E4,6.064616E3,1.700099E4,3.9198758E4,8.1832524E3,4.152716E3,7.87355E3,1.752397E4,8.726136E3,2.1625674E4,9.519187E3,2.9155414E4,1.9389783E4,1.1458957E5,4.0485054E3,1.00887726E3,1.5774574E4,4.538609E4,3.731272E4,2.0860916E5,2.6319516E4,4.3475625E4,2.7474979E4,1.141775E5,3.138333E3,3.733219E4,1.4815942E4,5.0493516E4,7.1217485E3,9.879241E3,1.5615466E4,2.3583293E4,1.0925634E3,7.090689E3,1.5889459E2,3.993821E3,1.5320507E3,6.341499E3,1.4199944E4,3.3240261E3,6.240702E3,2.485434E3,1.2411776E4,9.213896E3,2.2137043E3,7.305482E3,1.5600286E4,1.3555129E4,1.1360279E4,8.029504E3,1.0008904E5,1.450053E4,2.2873762E3,1.7611292E3,6.064616E3,9.709958E3,3.0604867E4,1.4781221E4,2.4185768E4,1.3126951E4,2.6698611E4,1.8191053E5,6.8144106E3,1.9505104E4,1.641704E4,2.7058588E4,1.1066349E4,1.6408629E4,8.371937E4,3.0458133E4,1.8292826E4,1.9039365E4,2.2714994E4,2.777852E4,3.8581099E3,3.263639E3,4.5462197E3,5.333022E3,8.523216E3,7.09225E3,6.573349E3,1.7009943E4,4.480266E2,6.4453674E2,2.088793E3,5.001896E3,1.3618722E3,2.6319487E3,5.7950068E0,1.5262556E3,4.7413765E3,1.6001228E3,5.7803916E3,8.419553E3,8.0022656E2,2.5237996E3,4.5930127E3,1.6476895E3,1.8215037E3,6.639304E2,5.8454214E3,6.566355E3,8.301923E3,9.119733E2,1.9361472E3,2.775571E2,3.1699292E3,4.1355527E3,4.6579995E3,1.0942286E4,1.03922295E4,3.162899E3,3.7302952E3,7.629984E3,2.3447932E3,5.684711E3,3.1067592E4,6.9021445E4,6.0180244E3,8.482506E3,2.3901037E4,6.7038306E3,3.0722363E2,1.4473998E4,1.8099887E4,6.0858794E3,1.4926558E3,1.1634295E4,1.1432728E4,1.5265884E4,5.4362617E4,1.2754792E5,5.6465664E3,1.1678444E3,6.0332573E3,1.3471847E4,2.2873762E3,1.4129662E4,1.8157572E4,8.901016E3,7.410741E3,8.997889E3,7.266595E4,1.1053415E4,1.5126682E4,1.5331451E4,1.1066349E4,1.16486455E4,1.9892389E4,7.8861313E3],"tree_param":{"num_deleted":"0","num_feature":"6","num_nodes":"179","size_leaf_vector":"1"}},{"base_weights":[6.0250072E0,3.7098405E0,7.4631643E0,1.9514E0,4.6211863E0,6.8497143E0,9.954946E0,1.3380241E0,2.700606E0,4.1838098E0,5.758277E0,6.3254914E0,7.484296E0,1.1630406E1,8.9309435E0,1.1635962E0,2.1250286E0,2.2908187E0,3.0419137E0,3.5015192E0,4.3812385E0,3.958077E0,5.907087E0,6.188292E0,9.529075E-1,6.646267E0,7.8971457E0,5.205898E-1,1.2128213E1,9.087602E0,7.2408557E-1,7.535261E-1,1.3391993E0,1.7171179E0,2.922067E0,1.802896E0,2.5099304E0,2.3188553E0,3.3329623E0,2.83459E0,3.719064E0,3.6529849E0,4.504431E0,4.208037E0,2.941208E-1,6.7733507E0,5.6051264E0,5.279367E0,6.351169E0,7.2056003E0,6.3068748E0,8.995843E0,7.632649E0,5.205898E-1,1.2709718E1,8.004721E-1,9.404955E0,5.2086794E-1,9.1641057E-1,9.882273E-1,1.5704365E0,8.9172846E-1,1.8422335E0,1.1003915E-1,2.9918385E0,1.2018081E0,1.9465066E0,2.6643085E0,1.8481734E0,2.164592E0,2.6995368E0,3.6983223E0,2.8389597E0,2.2842867E0,2.9997015E0,4.06258E0,3.3225477E0,2.9825168E0,4.59997E0,4.6272902E0,3.6566184E0,4.4421625E-1,3.89538E-1,7.2408557E-1,6.479488E-1,5.239337E0,6.3594995E0,5.7738028E0,4.3665953E0,7.123951E0,6.237633E0,6.3340383E0,7.5092006E0,5.381879E0,6.8684006E0,9.3872595E0,7.8937787E-1,6.094456E0,7.9316297E0,1.2579435E0,1.2833617E0,9.914589E0,8.987467E0,4.504173E-2,6.427252E-2,7.835841E-2,1.0269058E-1,7.982748E-2,1.2141877E-1,1.3417096E-1,1.6581832E-1,5.272553E-2,1.0441337E-1,1.4479768E-1,2.0042042E-1,3.4224638E-1,2.7635866E-1,-0E0,1.20575465E-1,2.066216E-1,1.5832567E-1,2.1212497E-1,3.0358106E-1,1.4055574E-1,1.9832464E-1,1.9824706E-1,2.66189E-1,2.8096572E-1,2.3774543E-1,4.1124114E-1,3.3263588E-1,2.9804504E-1,1.5363495E-1,2.664481E-1,2.0464754E-1,3.3553365E-1,2.7250963E-1,3.2121733E-1,4.422102E-1,2.0813893E-1,3.3704564E-1,3.4867415E-1,2.733738E-1,3.6378106E-1,4.989175E-1,5.0969005E-1,4.4154143E-1,3.2405743E-1,3.9486364E-1,5.593306E-1,3.9761716E-1,1.5913425E-1,6.459999E-1,6.280712E-1,4.262782E-1,2.5390854E-1,4.6001625E-1,5.749882E-1,8.1454563E-1,5.531749E-1,6.537196E-1,6.98656E-1,3.167073E-1,7.364498E-1,7.7663827E-1,4.4421625E-1,5.5329186E-1,7.194192E-1,6.203512E-1,9.783287E-1,8.907305E-1,5.191012E-1,7.660832E-1,8.01579E-1,4.357429E-1,9.783287E-1,1.0037498E0,9.275693E-1,8.2579213E-1],"categories":[],"categories_nodes":[],"categories_segments":[],"categories_sizes":[],"default_left":[0,0,0,0,0,0,0,0,0,0,0,0,0,0,0,0,0,0,0,0,0,0,0,0,0,0,0,0,0,0,0,0,0,0,0,0,0,0,0,0,0,0,0,0,0,0,0,0,0,0,0,0,0,0,0,0,0,0,0,0,0,0,0,0,0,0,0,0,0,0,0,0,0,0,0,0,0,0,0,0,0,0,0,0,0,0,0,0,0,0,0,0,0,0,0,0,0,0,0,0,0,0,0,0,0,0,0,0,0,0,0,0,0,0,0,0,0,0,0,0,0,0,0,0,0,0,0,0,0,0,0,0,0,0,0,0,0,0,0,0,0,0,0,0,0,0,0,0,0,0,0,0,0,0,0,0,0,0,0,0,0,0,0,0,0,0,0,0,0,0,0,0,0,0,0,0,0,0,0],"id":8,"left_children":[1,3,5,7,9,11,13,15,17,19,21,23,25,27,29,31,33,35,37,39,41,43,45,47,-1,49,51,-1,53,55,-1,57,59,61,63,65,67,69,71,73,75,77,79,81,-1,83,85,87,89,91,93,95,97,-1,99,-1,101,103,105,107,109,111,113,-1,115,117,119,121,123,125,127,129,131,133,135,137,139,141,143,145,147,-1,-1,-1,-1,149,151,153,155,157,159,161,163,165,167,169,-1,171,173,-1,-1,175,177,-1,-1,-1,-1,-1,-1,-1,-1,-1,-1,-1,-1,-1,-1,-1,-1,-1,-1,-1,-1,-1,-1,-1,-1,-1,-1,-1,-1,-1,-1,-1,-1,-1,-1,-1,-1,-1,-1,-1,-1,-1,-1,-1,-1,-1,-1,-1,-1,-1,-1,-1,-1,-1,-1,-1,-1,-1,-1,-1,-1,-1,-1,-1,-1,-1,-1,-1,-1,-1,-1,-1,-1,-1,-1,-1,-1],"loss_changes":[2.935878E6,5.413985E5,8.31186E5,5.296153E4,1.10554E5,1.45012E5,1.84037E5,8.672055E3,7.2006562E3,2.1557E4,1.6436375E4,1.04847E5,6.8111E4,1.30094E5,1.74295E4,3.7178828E3,3.686254E3,2.4762734E3,5.8929375E3,5.15975E3,1.108425E4,1.1177656E3,1.477025E4,3.3785E4,0E0,1.21925E4,3.82005E4,0E0,1.51989E5,2.07235E4,0E0,5.759961E2,2.9225352E3,7.574238E2,4.4920312E2,5.992578E2,1.612625E3,4.233789E2,3.5647812E3,7.4821875E2,3.6171875E3,1.13715625E4,1.1003E4,1.7635156E2,0E0,1.8411875E3,1.153525E4,1.56011875E4,1.6876E4,6.322125E3,2.092E4,1.0817375E4,4.8841E4,0E0,1.475E2,0E0,9.76175E3,4.4134644E1,1.1529492E2,5.9933984E2,4.071211E2,4.0107666E1,3.8412305E2,0E0,2.9560156E2,5.1657715E0,2.1698828E2,2.6014297E3,1.4830566E2,4.7489062E2,2.3873047E1,1.6956094E3,1.5337656E3,1.346211E2,5.963203E2,4.359328E3,6.9028125E2,1.2551172E3,2.6946406E3,9.1445E3,1.5562656E3,0E0,0E0,0E0,0E0,1.2638875E4,6.5288125E3,1.7174062E4,5.1483125E3,3.47375E4,3.56845E4,1.3038156E4,4.6975E2,2.0531562E3,5.2895E3,3.321E3,0E0,2.4398188E4,2.669E4,0E0,0E0,4.625E1,5.206375E3,0E0,0E0,0E0,0E0,0E0,0E0,0E0,0E0,0E0,0E0,0E0,0E0,0E0,0E0,0E0,0E0,0E0,0E0,0E0,0E0,0E0,0E0,0E0,0E0,0E0,0E0,0E0,0E0,0E0,0E0,0E0,0E0,0E0,0E0,0E0,0E0,0E0,0E0,0E0,0E0,0E0,0E0,0E0,0E0,0E0,0E0,0E0,0E0,0E0,0E0,0E0,0E0,0E0,0E0,0E0,0E0,0E0,0E0,0E0,0E0,0E0,0E0,0E0,0E0,0E0,0E0,0E0,0E0,0E0,0E0,0E0,0E0,0E0,0E0,0E0,0E0],"parents":[2147483647,0,0,1,1,2,2,3,3,4,4,5,5,6,6,7,7,8,8,9,9,10,10,11,11,12,12,13,13,14,14,15,15,16,16,17,17,18,18,19,19,20,20,21,21,22,22,23,23,25,25,26,26,28,28,29,29,31,31,32,32,33,33,34,34,35,35,36,36,37,37,38,38,39,39,40,40,41,41,42,42,43,43,45,45,46,46,47,47,48,48,49,49,50,50,51,51,52,52,54,54,56,56,57,57,58,58,59,59,60,60,61,61,62,62,64,64,65,65,66,66,67,67,68,68,69,69,70,70,71,71,72,72,73,73,74,74,75,75,76,76,77,77,78,78,79,79,80,80,85,85,86,86,87,87,88,88,89,89,90,90,91,91,92,92,93,93,94,94,95,95,97,97,98,98,101,101,102,102],"right_children":[2,4,6,8,10,12,14,16,18,20,22,24,26,28,30,32,34,36,38,40,42,44,46,48,-1,50,52,-1,54,56,-1,58,60,62,64,66,68,70,72,74,76,78,80,82,-1,84,86,88,90,92,94,96,98,-1,100,-1,102,104,106,108,110,112,114,-1,116,118,120,122,124,126,128,130,132,134,136,138,140,142,144,146,148,-1,-1,-1,-1,150,152,154,156,158,160,162,164,166,168,170,-1,172,174,-1,-1,176,178,-1,-1,-1,-1,-1,-1,-1,-1,-1,-1,-1,-1,-1,-1,-1,-1,-1,-1,-1,-1,-1,-1,-1,-1,-1,-1,-1,-1,-1,-1,-1,-1,-1,-1,-1,-1,-1,-1,-1,-1,-1,-1,-1,-1,-1,-1,-1,-1,-1,-1,-1,-1,-1,-1,-1,-1,-1,-1,-1,-1,-1,-1,-1,-1,-1,-1,-1,-1,-1,-1,-1,-1,-1,-1,-1,-1],"split_conditions":[5.94E2,2.44E2,9.983E3,3.3E1,5.498E3,1.1432077E0,-8.8491315E-1,1.4518584E1,4.3140656E-1,5.557885E-1,4.44E2,4.76E2,3.36E2,3.55E2,1.3114E4,2.356196E-1,7.8E1,1.4850083E1,1.3130803E1,4.1744742E-1,1.45E2,4.23E2,-1.1395342E0,2.92E2,9.529075E-1,6.3613995E1,6.97E2,5.205898E-1,1.6502267E0,1.0369306E-1,7.2408557E-1,3.2E1,3.1E1,6.9736195E-1,1.6319302E1,9.501097E0,3.995198E1,5.5E1,2.2902262E1,-3.0587208E-1,5.210364E-1,1.6381392E0,1.7064519E2,3.95E2,2.941208E-1,4.62E2,1.1098783E0,5.710774E-1,6.6E2,6.35E2,9.7690285E1,7.87E3,8.36E2,5.205898E-1,-1.3996246E0,8.004721E-1,4.08E2,7E0,1.7E1,2E1,4.0722084E-1,4.1233456E-1,1.36E2,1.1003915E-1,4.67E2,9.3E1,1.6E2,1.57E3,-4.3462536E-1,1.3433069E0,2.276E3,5.337884E-1,8.360509E1,1.57E3,2.449E3,3.35E2,7.9E1,2.85E2,3.493E3,-9.7505385E-1,1.8619098E2,4.4421625E-1,3.89538E-1,7.2408557E-1,6.479488E-1,1.8837626E-1,-7.4590826E-1,6.192E3,5.784E3,5.04E3,3.55E2,1.81E2,7.24E3,6.887E3,3.1E2,7.24E3,7.8937787E-1,8.633E3,1.2650554E2,1.2579435E0,1.2833617E0,7.21E2,6.342365E-1,4.504173E-2,6.427252E-2,7.835841E-2,1.0269058E-1,7.982748E-2,1.2141877E-1,1.3417096E-1,1.6581832E-1,5.272553E-2,1.0441337E-1,1.4479768E-1,2.0042042E-1,3.4224638E-1,2.7635866E-1,-0E0,1.20575465E-1,2.066216E-1,1.5832567E-1,2.1212497E-1,3.0358106E-1,1.4055574E-1,1.9832464E-1,1.9824706E-1,2.66189E-1,2.8096572E-1,2.3774543E-1,4.1124114E-1,3.3263588E-1,2.9804504E-1,1.5363495E-1,2.664481E-1,2.0464754E-1,3.3553365E-1,2.7250963E-1,3.2121733E-1,4.422102E-1,2.0813893E-1,3.3704564E-1,3.4867415E-1,2.733738E-1,3.6378106E-1,4.989175E-1,5.0969005E-1,4.4154143E-1,3.2405743E-1,3.9486364E-1,5.593306E-1,3.9761716E-1,1.5913425E-1,6.459999E-1,6.280712E-1,4.262782E-1,2.5390854E-1,4.6001625E-1,5.749882E-1,8.1454563E-1,5.531749E-1,6.537196E-1,6.98656E-1,3.167073E-1,7.364498E-1,7.7663827E-1,4.4421625E-1,5.5329186E-1,7.194192E-1,6.203512E-1,9.783287E-1,8.907305E-1,5.191012E-1,7.660832E-1,8.01579E-1,4.357429E-1,9.783287E-1,1.0037498E0,9.275693E-1,8.2579213E-1],"split_indices":[1,1,0,2,0,5,3,4,5,5,1,2,2,2,0,5,1,4,4,5,2,1,3,2,0,4,1,0,5,3,0,1,1,5,4,4,4,2,4,3,5,3,4,1,0,1,5,3,1,1,4,0,1,0,3,0,2,2,2,1,5,5,0,0,0,1,1,0,3,5,0,5,4,0,0,1,2,1,0,3,4,0,0,0,0,3,3,0,0,0,2,2,0,0,2,0,0,0,4,0,0,1,3,0,0,0,0,0,0,0,0,0,0,0,0,0,0,0,0,0,0,0,0,0,0,0,0,0,0,0,0,0,0,0,0,0,0,0,0,0,0,0,0,0,0,0,0,0,0,0,0,0,0,0,0,0,0,0,0,0,0,0,0,0,0,0,0,0,0,0,0,0,0,0,0,0,0,0,0],"split_type":[0,0,0,0,0,0,0,0,0,0,0,0,0,0,0,0,0,0,0,0,0,0,0,0,0,0,0,0,0,0,0,0,0,0,0,0,0,0,0,0,0,0,0,0,0,0,0,0,0,0,0,0,0,0,0,0,0,0,0,0,0,0,0,0,0,0,0,0,0,0,0,0,0,0,0,0,0,0,0,0,0,0,0,0,0,0,0,0,0,0,0,0,0,0,0,0,0,0,0,0,0,0,0,0,0,0,0,0,0,0,0,0,0,0,0,0,0,0,0,0,0,0,0,0,0,0,0,0,0,0,0,0,0,0,0,0,0,0,0,0,0,0,0,0,0,0,0,0,0,0,0,0,0,0,0,0,0,0,0,0,0,0,0,0,0,0,0,0,0,0,0,0,0,0,0,0,0,0,0],"sum_hessian":[8.817986E5,3.3788184E5,5.4391675E5,1.1534261E5,2.2253925E5,4.364702E5,1.0744658E5,6.34292E4,5.1913414E4,1.6072903E5,6.181022E4,2.3903339E5,1.9743678E5,4.0750652E4,6.669592E4,5.1933977E4,1.1495223E4,2.3606969E4,2.8306445E4,3.6086746E4,1.2464228E5,4.726547E3,5.708367E4,2.2922255E5,9.810848E3,6.517722E4,1.3225956E5,2.9327817E3,3.781787E4,6.1028727E4,5.6671978E3,1.5590097E4,3.634388E4,7.6141353E3,3.881087E3,7.332859E3,1.627411E4,8.136376E3,2.0170068E4,8.890636E3,2.7196111E4,1.805017E4,1.0659211E5,3.783532E3,9.430149E2,1.4740774E4,4.23429E4,3.484841E4,1.9437414E5,2.4594582E4,4.0582637E4,2.564819E4,1.06611375E5,2.9327817E3,3.488509E4,1.3844815E4,4.7183914E4,6.447013E3,9.143083E3,1.4454041E4,2.1889838E4,1.0138445E3,6.600291E3,1.490708E2,3.732016E3,1.4293324E3,5.9035264E3,1.3181032E4,3.0930776E3,5.8135215E3,2.3228545E3,1.1579351E4,8.590718E3,2.069283E3,6.8213525E3,1.4553465E4,1.2642646E4,1.0576608E4,7.4735615E3,9.308637E4,1.3505744E4,2.1376309E3,1.6459011E3,5.6671978E3,9.073576E3,2.8530078E4,1.3812818E4,2.2593535E4,1.2254876E4,2.4879861E4,1.6949428E5,6.368103E3,1.8226479E4,1.5340607E4,2.5242027E4,1.8913988E4,6.7342E3,1.7358797E4,8.925258E4,1.7093746E4,1.7791344E4,2.1226156E4,2.5957756E4,4.1401714E3,2.3068418E3,4.196753E3,4.9463306E3,7.879207E3,6.574834E3,6.105379E3,1.578446E4,3.1960092E2,6.942436E2,1.9428457E3,4.6574453E3,1.2728396E3,2.4591765E3,5.7950068E0,1.4235374E3,4.416009E3,1.4875176E3,5.3679023E3,7.81313E3,7.431884E2,2.3498892E3,4.27355E3,1.5399719E3,1.7021243E3,6.2073004E2,5.4619185E3,6.1174326E3,7.7409263E3,8.4979175E2,7.761614E2,1.2931216E3,2.9514111E3,3.8699412E3,4.335677E3,1.0217788E4,4.7927692E2,1.2163369E4,3.4767422E3,7.099866E3,2.1628315E3,5.3107295E3,2.8918979E4,6.416739E4,5.589133E3,7.916612E3,2.2276373E4,6.2537056E3,2.8752866E2,1.3525289E4,1.6910662E4,5.6828726E3,1.3949562E3,1.085992E4,1.0616115E4,1.4263746E4,5.0514918E4,1.1897936E5,5.276557E3,1.0915458E3,1.1707703E4,6.518776E3,2.1376309E3,1.3202977E4,1.692436E4,8.317669E3,1.0341017E4,8.572973E3,1.1015848E4,6.342949E3,8.719538E4,2.0571907E3,1.0341017E4,1.088514E4,1.8588465E4,7.369291E3],"tree_param":{"num_deleted":"0","num_feature":"6","num_nodes":"179","size_leaf_vector":"1"}},{"base_weights":[5.8397803E0,3.602059E0,7.226156E0,1.8990813E0,4.4818063E0,6.6348934E0,9.623136E0,1.3053416E0,2.620587E0,4.0609655E0,5.5728445E0,6.1312103E0,7.2437387E0,1.1242689E1,8.633274E0,9.7916675E-1,1.6968879E0,2.2271535E0,2.9471714E0,3.7147496E0,4.4435124E0,3.8261144E0,5.7174067E0,5.9989343E0,9.2113334E-1,6.4288077E0,7.6455455E0,5.0320685E-1,1.1723912E1,8.784706E0,6.9993263E-1,7.833708E-1,1.3678381E0,1.5064037E0,2.5412002E0,1.7493259E0,2.4422646E0,2.2472773E0,3.228764E0,2.740815E0,3.8297393E0,4.0602803E0,4.78213E0,4.0676646E0,2.842322E-1,6.547549E0,5.427529E0,5.1065097E0,6.1592493E0,6.9654784E0,6.102816E0,8.698779E0,7.390555E0,5.0320685E-1,1.228605E1,7.7378255E-1,9.091475E0,6.494417E-1,9.5978653E-1,1.1456618E0,1.672265E0,1.1414238E0,1.7203802E0,1.6660863E0,2.89248E0,1.1639515E0,1.8892914E0,2.593617E0,1.7947361E0,2.0996852E0,2.609683E0,2.3130815E0,3.4131863E0,2.2069607E0,2.9010048E0,4.128682E0,3.576323E0,5.0527644E0,3.3781254E0,5.533885E0,4.5192003E0,4.2936918E-1,3.7650272E-1,6.9993263E-1,6.2634027E-1,5.0775914E0,6.147325E0,5.5832705E0,4.2256455E0,6.693696E0,5.998324E0,6.1227107E0,7.258987E0,5.2026696E0,6.6500125E0,9.4570774E-1,8.187795E0,7.7991457E0,6.257664E0,1.2160056E0,1.2405765E0,9.5840845E0,8.687866E0,5.1640507E-2,8.008997E-2,8.272953E-2,1.1879487E-1,1.5271994E-1,1.0324935E-1,1.8641932E-1,1.1898816E-1,8.6934306E-2,1.2940018E-1,1.518166E-1,1.8214378E-1,1.177268E-1,1.9828674E-1,3.3077413E-1,2.671784E-1,-0E0,1.168018E-1,2.0043324E-1,1.5387347E-1,2.0634525E-1,2.956552E-1,1.3668363E-1,1.9245446E-1,1.9253436E-1,2.5726473E-1,2.832521E-1,2.4493031E-1,2.4914463E-1,1.6080873E-1,3.5076645E-1,1.5339534E-1,2.3136066E-1,1.408708E-1,2.981953E-1,1.6137542E-1,4.4140753E-1,3.5666955E-1,3.9846715E-1,3.3090538E-1,4.4295797E-1,6.360366E-1,4.1095176E-1,3.0052787E-1,5.8072215E-1,4.673514E-1,3.544902E-1,4.7393823E-1,5.421533E-1,3.850946E-1,1.5357497E-1,6.2446064E-1,6.072448E-1,4.1240022E-1,2.4541962E-1,4.452227E-1,5.27765E-1,7.508736E-1,4.363738E-1,6.110739E-1,6.7534953E-1,3.0607653E-1,6.9764346E-1,7.3838335E-1,4.2936918E-1,5.348688E-1,6.970823E-1,5.996618E-1,7.737626E-1,8.553915E-1,7.9333454E-1,6.9172364E-1,4.576478E-1,7.8808206E-1,9.4570774E-1,9.702819E-1,8.966448E-1,7.982523E-1],"categories":[],"categories_nodes":[],"categories_segments":[],"categories_sizes":[],"default_left":[0,0,0,0,0,0,0,0,0,0,0,0,0,0,0,0,0,0,0,0,0,0,0,0,0,0,0,0,0,0,0,0,0,0,0,0,0,0,0,0,0,0,0,0,0,0,0,0,0,0,0,0,0,0,0,0,0,0,0,0,0,0,0,0,0,0,0,0,0,0,0,0,0,0,0,0,0,0,0,0,0,0,0,0,0,0,0,0,0,0,0,0,0,0,0,0,0,0,0,0,0,0,0,0,0,0,0,0,0,0,0,0,0,0,0,0,0,0,0,0,0,0,0,0,0,0,0,0,0,0,0,0,0,0,0,0,0,0,0,0,0,0,0,0,0,0,0,0,0,0,0,0,0,0,0,0,0,0,0,0,0,0,0,0,0,0,0,0,0,0,0,0,0,0,0,0,0,0,0,0,0],"id":9,"left_children":[1,3,5,7,9,11,13,15,17,19,21,23,25,27,29,31,33,35,37,39,41,43,45,47,-1,49,51,-1,53,55,-1,57,59,61,63,65,67,69,71,73,75,77,79,81,-1,83,85,87,89,91,93,95,97,-1,99,-1,101,103,105,107,109,111,113,115,117,119,121,123,125,127,129,131,133,135,137,139,141,143,145,147,149,-1,-1,-1,-1,151,153,155,157,159,161,163,165,167,169,-1,171,173,175,-1,-1,177,179,-1,-1,-1,-1,-1,-1,-1,-1,-1,-1,-1,-1,-1,-1,-1,-1,-1,-1,-1,-1,-1,-1,-1,-1,-1,-1,-1,-1,-1,-1,-1,-1,-1,-1,-1,-1,-1,-1,-1,-1,-1,-1,-1,-1,-1,-1,-1,-1,-1,-1,-1,-1,-1,-1,-1,-1,-1,-1,-1,-1,-1,-1,-1,-1,-1,-1,-1,-1,-1,-1,-1,-1,-1,-1,-1,-1,-1,-1],"loss_changes":[2.549628E6,4.7097825E5,7.18994E5,4.583897E4,9.506875E4,1.24656E5,1.60667E5,7.4764062E3,6.153E3,1.971725E4,1.445175E4,9.05635E4,6.0152E4,1.13585E5,1.52025E4,2.4182695E3,4.2482344E3,2.2093828E3,5.140547E3,8.7215E3,9.1135E3,9.693047E2,1.2666E4,3.04185E4,0E0,1.047625E4,3.29195E4,0E0,1.32706E5,1.8076E4,0E0,4.876953E2,6.953965E2,1.6711016E3,1.4565176E3,5.2688477E2,1.4328281E3,3.532461E2,3.1115781E3,6.5301953E2,5.230125E3,2.2480312E4,7.327375E3,1.451914E2,0E0,1.5919375E3,9.807125E3,1.3546625E4,1.54065E4,5.506875E3,1.8508875E4,9.06175E3,4.58085E4,0E0,9.5E1,0E0,8.50025E3,2.3165381E2,2.5633398E2,2.4152441E2,3.842666E2,3.1239453E2,2.4414453E2,1.8511377E2,2.5106445E2,4.748047E0,1.8316406E2,2.2982266E3,1.2439258E2,3.9666016E2,1.786621E1,3.5308008E2,2.7222344E3,1.2434375E2,6.133047E2,5.06975E3,4.0660625E3,1.0928875E4,5.3095156E3,2.1624375E3,5.8964375E3,0E0,0E0,0E0,0E0,1.11074375E4,5.7038125E3,1.4939875E4,4.512172E3,4.817075E4,2.54465E4,1.1377156E4,4.0575E2,1.783375E3,4.765625E3,0E0,2.14075E3,8.439E3,7.174806E4,0E0,0E0,1.5625E1,4.5255E3,0E0,0E0,0E0,0E0,0E0,0E0,0E0,0E0,0E0,0E0,0E0,0E0,0E0,0E0,0E0,0E0,0E0,0E0,0E0,0E0,0E0,0E0,0E0,0E0,0E0,0E0,0E0,0E0,0E0,0E0,0E0,0E0,0E0,0E0,0E0,0E0,0E0,0E0,0E0,0E0,0E0,0E0,0E0,0E0,0E0,0E0,0E0,0E0,0E0,0E0,0E0,0E0,0E0,0E0,0E0,0E0,0E0,0E0,0E0,0E0,0E0,0E0,0E0,0E0,0E0,0E0,0E0,0E0,0E0,0E0,0E0,0E0,0E0,0E0,0E0,0E0,0E0,0E0],"parents":[2147483647,0,0,1,1,2,2,3,3,4,4,5,5,6,6,7,7,8,8,9,9,10,10,11,11,12,12,13,13,14,14,15,15,16,16,17,17,18,18,19,19,20,20,21,21,22,22,23,23,25,25,26,26,28,28,29,29,31,31,32,32,33,33,34,34,35,35,36,36,37,37,38,38,39,39,40,40,41,41,42,42,43,43,45,45,46,46,47,47,48,48,49,49,50,50,51,51,52,52,54,54,56,56,57,57,58,58,59,59,60,60,